<?xml version="1.0" encoding="UTF-8"?>
<!-- This network was created in GeNIe Academic, which can be used for academic teaching and research purposes only -->
<smile version="1.0" id="Network2" numsamples="10000" discsamples="10000">
	<nodes>
		<cpt id="Agrochemical_Legislation">
			<state id="State0" />
			<state id="State1" />
			<probabilities>0.5 0.5</probabilities>
		</cpt>
		<cpt id="Agrochemical_Type">
			<state id="State0" />
			<state id="State1" />
			<parents>Agrochemical_Legislation</parents>
			<probabilities>0.5 0.5 0.5 0.5</probabilities>
		</cpt>
		<cpt id="Agrochemical_Score">
			<state id="State0" />
			<state id="State1" />
			<parents>Agrochemical_Type</parents>
			<probabilities>0.5 0.5 0.5 0.5</probabilities>
		</cpt>
		<cpt id="Market_Supply_and_Demand">
			<state id="State0" />
			<state id="State1" />
			<probabilities>0.3 0.7</probabilities>
		</cpt>
		<cpt id="Winery_Contract_Certainty">
			<state id="State0" />
			<state id="State1" />
			<parents>Market_Supply_and_Demand</parents>
			<probabilities>0.9 0.1 0.1 0.9</probabilities>
		</cpt>
		<cpt id="Grape_Quality_and_yield_Targets">
			<state id="State0" />
			<state id="State1" />
			<parents>Winery_Contract_Certainty</parents>
			<probabilities>0.8 0.2 0.2 0.8</probabilities>
		</cpt>
		<cpt id="Seasonal_Conditions">
			<state id="State0" />
			<state id="State1" />
			<probabilities>0.85 0.15</probabilities>
		</cpt>
		<cpt id="Spray_Application_Number">
			<state id="State0" />
			<state id="State1" />
			<parents>Agrochemical_Type Grape_Quality_and_yield_Targets Seasonal_Conditions</parents>
			<probabilities>0.3 0.7 0.363157895 0.636842105 0.355263158 0.644736842 0.418421053 0.581578947 0.331578947 0.668421053 0.394736842 0.605263158 0.386842105 0.613157895 0.45 0.55</probabilities>
		</cpt>
		<cpt id="Renewable_Energy">
			<state id="State0" />
			<state id="State1" />
			<probabilities>0.03 0.97</probabilities>
		</cpt>
		<cpt id="Electr5icity_Price">
			<state id="State0" />
			<state id="State1" />
			<parents>Renewable_Energy</parents>
			<probabilities>0.35 0.65 0.65 0.35</probabilities>
		</cpt>
		<cpt id="Clay_Content">
			<state id="State0" />
			<state id="State1" />
			<probabilities>0.7 0.3</probabilities>
		</cpt>
		<cpt id="Compost_Mulch">
			<state id="State0" />
			<state id="State1" />
			<probabilities>0.3 0.7</probabilities>
		</cpt>
		<cpt id="Nutrient_Leaching_Management">
			<state id="State0" />
			<state id="State1" />
			<probabilities>0.9 0.1</probabilities>
		</cpt>
		<cpt id="Grape_Price">
			<state id="State0" />
			<state id="State1" />
			<parents>Market_Supply_and_Demand Winery_Contract_Certainty</parents>
			<probabilities>0.9 0.1 0.55 0.45 0.45 0.55 0.1 0.9</probabilities>
		</cpt>
		<cpt id="Pest_and_Disease_Management">
			<state id="State0" />
			<state id="State1" />
			<parents>Grape_Price Seasonal_Conditions</parents>
			<probabilities>0.6 0.4 0.488888889 0.511111111 0.511111111 0.488888889 0.4 0.6</probabilities>
		</cpt>
		<cpt id="Vineyard_Floor_Management">
			<state id="State0" />
			<state id="State1" />
			<parents>Pest_and_Disease_Management</parents>
			<probabilities>0.2 0.8 0.8 0.2</probabilities>
		</cpt>
		<cpt id="Specialist_Equipment">
			<state id="State0" />
			<state id="State1" />
			<probabilities>0.6 0.4</probabilities>
		</cpt>
		<cpt id="Tractor_passes">
			<state id="State0" />
			<state id="State1" />
			<parents>Spray_Application_Number Vineyard_Floor_Management Specialist_Equipment</parents>
			<probabilities>0.25 0.75 0.4 0.6 0.4 0.6 0.55 0.45 0.45 0.55 0.6 0.4 0.6 0.4 0.75 0.25</probabilities>
		</cpt>
		<cpt id="Soil_Degredation_Management">
			<state id="State0" />
			<state id="State1" />
			<parents>Tractor_passes Vineyard_Floor_Management</parents>
			<probabilities>0.8 0.2 0.482352941 0.517647059 0.517647059 0.482352941 0.2 0.8</probabilities>
		</cpt>
		<cpt id="Soil_Depth">
			<state id="State0" />
			<state id="State1" />
			<probabilities>0.5 0.5</probabilities>
		</cpt>
		<cpt id="Soil_Organic_Carbon">
			<state id="State0" />
			<state id="State1" />
			<probabilities>0.5 0.5</probabilities>
		</cpt>
		<cpt id="Water_Scarcity">
			<state id="State0" />
			<state id="State1" />
			<probabilities>0.5 0.5</probabilities>
		</cpt>
		<cpt id="Water_Licences">
			<state id="State0" />
			<state id="State1" />
			<parents>Water_Scarcity</parents>
			<probabilities>0.7 0.3 0.3 0.7</probabilities>
		</cpt>
		<cpt id="Water_Price">
			<state id="State0" />
			<state id="State1" />
			<parents>Water_Scarcity</parents>
			<probabilities>0.8 0.2 0.2 0.8</probabilities>
		</cpt>
		<cpt id="Water_Quality">
			<state id="State0" />
			<state id="State1" />
			<parents>Water_Scarcity Seasonal_Conditions</parents>
			<probabilities>0.65 0.35 0.5346153850000001 0.465384615 0.465384615 0.5346153850000001 0.35 0.65</probabilities>
		</cpt>
		<cpt id="Water_Use_Efficiency">
			<state id="State0" />
			<state id="State1" />
			<probabilities>0.8 0.2</probabilities>
		</cpt>
		<cpt id="Water_Use">
			<state id="State0" />
			<state id="State1" />
			<parents>Clay_Content Compost_Mulch Nutrient_Leaching_Management Soil_Degredation_Management Soil_Depth Soil_Organic_Carbon Vineyard_Floor_Management Water_Licences Water_Price Water_Quality Water_Use_Efficiency Grape_Quality_and_yield_Targets Water_Scarcity</parents>
			<probabilities>0.55 0.45 0.535611511 0.464388489 0.539928058 0.460071942 0.525539568 0.474460432 0.537769784 0.462230216 0.523381295 0.476618705 0.527697842 0.472302158 0.513309353 0.486690647 0.542086331 0.457913669 0.527697842 0.472302158 0.532014388 0.467985612 0.517625899 0.482374101 0.529856115 0.470143885 0.515467626 0.484532374 0.519784173 0.480215827 0.505395683 0.494604317 0.545683453 0.454316547 0.531294964 0.468705036 0.535611511 0.464388489 0.521223022 0.478776978 0.533453237 0.466546763 0.519064748 0.480935252 0.523381295 0.476618705 0.508992806 0.491007194 0.537769784 0.462230216 0.523381295 0.476618705 0.527697842 0.472302158 0.513309353 0.486690647 0.525539568 0.474460432 0.511151079 0.488848921 0.515467626 0.484532374 0.501079137 0.498920863 0.5435251800000001 0.45647482 0.529136691 0.470863309 0.533453237 0.466546763 0.519064748 0.480935252 0.531294964 0.468705036 0.516906475 0.483093525 0.521223022 0.478776978 0.5068345319999999 0.493165468 0.535611511 0.464388489 0.521223022 0.478776978 0.525539568 0.474460432 0.511151079 0.488848921 0.523381295 0.476618705 0.508992806 0.491007194 0.513309353 0.486690647 0.498920863 0.501079137 0.539208633 0.460791367 0.524820144 0.475179856 0.529136691 0.470863309 0.514748201 0.485251799 0.526978417 0.473021583 0.512589928 0.487410072 0.516906475 0.483093525 0.502517986 0.497482014 0.531294964 0.468705036 0.516906475 0.483093525 0.521223022 0.478776978 0.5068345319999999 0.493165468 0.519064748 0.480935252 0.504676259 0.495323741 0.508992806 0.491007194 0.494604317 0.505395683 0.539928058 0.460071942 0.525539568 0.474460432 0.529856115 0.470143885 0.515467626 0.484532374 0.527697842 0.472302158 0.513309353 0.486690647 0.517625899 0.482374101 0.50323741 0.49676259 0.532014388 0.467985612 0.517625899 0.482374101 0.5219424459999999 0.478057554 0.5075539569999999 0.492446043 0.519784173 0.480215827 0.505395683 0.494604317 0.50971223 0.49028777 0.495323741 0.504676259 0.535611511 0.464388489 0.521223022 0.478776978 0.525539568 0.474460432 0.511151079 0.488848921 0.523381295 0.476618705 0.508992806 0.491007194 0.513309353 0.486690647 0.498920863 0.501079137 0.527697842 0.472302158 0.513309353 0.486690647 0.517625899 0.482374101 0.50323741 0.49676259 0.515467626 0.484532374 0.501079137 0.498920863 0.505395683 0.494604317 0.491007194 0.508992806 0.533453237 0.466546763 0.519064748 0.480935252 0.523381295 0.476618705 0.508992806 0.491007194 0.521223022 0.478776978 0.5068345319999999 0.493165468 0.511151079 0.488848921 0.49676259 0.50323741 0.525539568 0.474460432 0.511151079 0.488848921 0.515467626 0.484532374 0.501079137 0.498920863 0.513309353 0.486690647 0.498920863 0.501079137 0.50323741 0.49676259 0.488848921 0.511151079 0.529136691 0.470863309 0.514748201 0.485251799 0.519064748 0.480935252 0.504676259 0.495323741 0.516906475 0.483093525 0.502517986 0.497482014 0.5068345319999999 0.493165468 0.492446043 0.5075539569999999 0.521223022 0.478776978 0.5068345319999999 0.493165468 0.511151079 0.488848921 0.49676259 0.50323741 0.508992806 0.491007194 0.494604317 0.505395683 0.498920863 0.501079137 0.484532374 0.515467626 0.547122302 0.452877698 0.532733813 0.467266187 0.5370503599999999 0.46294964 0.5226618709999999 0.477338129 0.534892086 0.465107914 0.520503597 0.479496403 0.524820144 0.475179856 0.510431655 0.489568345 0.539208633 0.460791367 0.524820144 0.475179856 0.529136691 0.470863309 0.514748201 0.485251799 0.526978417 0.473021583 0.512589928 0.487410072 0.516906475 0.483093525 0.502517986 0.497482014 0.5428057549999999 0.457194245 0.5284172660000001 0.471582734 0.532733813 0.467266187 0.518345324 0.481654676 0.53057554 0.46942446 0.51618705 0.48381295 0.520503597 0.479496403 0.506115108 0.493884892 0.534892086 0.465107914 0.520503597 0.479496403 0.524820144 0.475179856 0.510431655 0.489568345 0.5226618709999999 0.477338129 0.508273381 0.491726619 0.512589928 0.487410072 0.498201439 0.501798561 0.540647482 0.459352518 0.526258993 0.473741007 0.53057554 0.46942446 0.51618705 0.48381295 0.5284172660000001 0.471582734 0.514028777 0.485971223 0.518345324 0.481654676 0.503956835 0.496043165 0.532733813 0.467266187 0.518345324 0.481654676 0.5226618709999999 0.477338129 0.508273381 0.491726619 0.520503597 0.479496403 0.506115108 0.493884892 0.510431655 0.489568345 0.496043165 0.503956835 0.536330935 0.463669065 0.5219424459999999 0.478057554 0.526258993 0.473741007 0.511870504 0.488129496 0.524100719 0.475899281 0.50971223 0.49028777 0.514028777 0.485971223 0.499640288 0.500359712 0.5284172660000001 0.471582734 0.514028777 0.485971223 0.518345324 0.481654676 0.503956835 0.496043165 0.51618705 0.48381295 0.501798561 0.498201439 0.506115108 0.493884892 0.491726619 0.508273381 0.5370503599999999 0.46294964 0.5226618709999999 0.477338129 0.526978417 0.473021583 0.512589928 0.487410072 0.524820144 0.475179856 0.510431655 0.489568345 0.514748201 0.485251799 0.500359712 0.499640288 0.529136691 0.470863309 0.514748201 0.485251799 0.519064748 0.480935252 0.504676259 0.495323741 0.516906475 0.483093525 0.502517986 0.497482014 0.5068345319999999 0.493165468 0.492446043 0.5075539569999999 0.532733813 0.467266187 0.518345324 0.481654676 0.5226618709999999 0.477338129 0.508273381 0.491726619 0.520503597 0.479496403 0.506115108 0.493884892 0.510431655 0.489568345 0.496043165 0.503956835 0.524820144 0.475179856 0.510431655 0.489568345 0.514748201 0.485251799 0.500359712 0.499640288 0.512589928 0.487410072 0.498201439 0.501798561 0.502517986 0.497482014 0.488129496 0.511870504 0.53057554 0.46942446 0.51618705 0.48381295 0.520503597 0.479496403 0.506115108 0.493884892 0.518345324 0.481654676 0.503956835 0.496043165 0.508273381 0.491726619 0.493884892 0.506115108 0.5226618709999999 0.477338129 0.508273381 0.491726619 0.512589928 0.487410072 0.498201439 0.501798561 0.510431655 0.489568345 0.496043165 0.503956835 0.500359712 0.499640288 0.485971223 0.514028777 0.526258993 0.473741007 0.511870504 0.488129496 0.51618705 0.48381295 0.501798561 0.498201439 0.514028777 0.485971223 0.499640288 0.500359712 0.503956835 0.496043165 0.489568345 0.510431655 0.518345324 0.481654676 0.503956835 0.496043165 0.508273381 0.491726619 0.493884892 0.506115108 0.506115108 0.493884892 0.491726619 0.508273381 0.496043165 0.503956835 0.481654676 0.518345324 0.538489209 0.461510791 0.524100719 0.475899281 0.5284172660000001 0.471582734 0.514028777 0.485971223 0.526258993 0.473741007 0.511870504 0.488129496 0.51618705 0.48381295 0.501798561 0.498201439 0.53057554 0.46942446 0.51618705 0.48381295 0.520503597 0.479496403 0.506115108 0.493884892 0.518345324 0.481654676 0.503956835 0.496043165 0.508273381 0.491726619 0.493884892 0.506115108 0.534172662 0.465827338 0.519784173 0.480215827 0.524100719 0.475899281 0.50971223 0.49028777 0.5219424459999999 0.478057554 0.5075539569999999 0.492446043 0.511870504 0.488129496 0.497482014 0.502517986 0.526258993 0.473741007 0.511870504 0.488129496 0.51618705 0.48381295 0.501798561 0.498201439 0.514028777 0.485971223 0.499640288 0.500359712 0.503956835 0.496043165 0.489568345 0.510431655 0.532014388 0.467985612 0.517625899 0.482374101 0.5219424459999999 0.478057554 0.5075539569999999 0.492446043 0.519784173 0.480215827 0.505395683 0.494604317 0.50971223 0.49028777 0.495323741 0.504676259 0.524100719 0.475899281 0.50971223 0.49028777 0.514028777 0.485971223 0.499640288 0.500359712 0.511870504 0.488129496 0.497482014 0.502517986 0.501798561 0.498201439 0.487410072 0.512589928 0.527697842 0.472302158 0.513309353 0.486690647 0.517625899 0.482374101 0.50323741 0.49676259 0.515467626 0.484532374 0.501079137 0.498920863 0.505395683 0.494604317 0.491007194 0.508992806 0.519784173 0.480215827 0.505395683 0.494604317 0.50971223 0.49028777 0.495323741 0.504676259 0.5075539569999999 0.492446043 0.493165468 0.5068345319999999 0.497482014 0.502517986 0.483093525 0.516906475 0.5284172660000001 0.471582734 0.514028777 0.485971223 0.518345324 0.481654676 0.503956835 0.496043165 0.51618705 0.48381295 0.501798561 0.498201439 0.506115108 0.493884892 0.491726619 0.508273381 0.520503597 0.479496403 0.506115108 0.493884892 0.510431655 0.489568345 0.496043165 0.503956835 0.508273381 0.491726619 0.493884892 0.506115108 0.498201439 0.501798561 0.48381295 0.51618705 0.524100719 0.475899281 0.50971223 0.49028777 0.514028777 0.485971223 0.499640288 0.500359712 0.511870504 0.488129496 0.497482014 0.502517986 0.501798561 0.498201439 0.487410072 0.512589928 0.51618705 0.48381295 0.501798561 0.498201439 0.506115108 0.493884892 0.491726619 0.508273381 0.503956835 0.496043165 0.489568345 0.510431655 0.493884892 0.506115108 0.479496403 0.520503597 0.5219424459999999 0.478057554 0.5075539569999999 0.492446043 0.511870504 0.488129496 0.497482014 0.502517986 0.50971223 0.49028777 0.495323741 0.504676259 0.499640288 0.500359712 0.485251799 0.514748201 0.514028777 0.485971223 0.499640288 0.500359712 0.503956835 0.496043165 0.489568345 0.510431655 0.501798561 0.498201439 0.487410072 0.512589928 0.491726619 0.508273381 0.477338129 0.5226618709999999 0.517625899 0.482374101 0.50323741 0.49676259 0.5075539569999999 0.492446043 0.493165468 0.5068345319999999 0.505395683 0.494604317 0.491007194 0.508992806 0.495323741 0.504676259 0.480935252 0.519064748 0.50971223 0.49028777 0.495323741 0.504676259 0.499640288 0.500359712 0.485251799 0.514748201 0.497482014 0.502517986 0.483093525 0.516906475 0.487410072 0.512589928 0.473021583 0.526978417 0.535611511 0.464388489 0.521223022 0.478776978 0.525539568 0.474460432 0.511151079 0.488848921 0.523381295 0.476618705 0.508992806 0.491007194 0.513309353 0.486690647 0.498920863 0.501079137 0.527697842 0.472302158 0.513309353 0.486690647 0.517625899 0.482374101 0.50323741 0.49676259 0.515467626 0.484532374 0.501079137 0.498920863 0.505395683 0.494604317 0.491007194 0.508992806 0.531294964 0.468705036 0.516906475 0.483093525 0.521223022 0.478776978 0.5068345319999999 0.493165468 0.519064748 0.480935252 0.504676259 0.495323741 0.508992806 0.491007194 0.494604317 0.505395683 0.523381295 0.476618705 0.508992806 0.491007194 0.513309353 0.486690647 0.498920863 0.501079137 0.511151079 0.488848921 0.49676259 0.50323741 0.501079137 0.498920863 0.486690647 0.513309353 0.529136691 0.470863309 0.514748201 0.485251799 0.519064748 0.480935252 0.504676259 0.495323741 0.516906475 0.483093525 0.502517986 0.497482014 0.5068345319999999 0.493165468 0.492446043 0.5075539569999999 0.521223022 0.478776978 0.5068345319999999 0.493165468 0.511151079 0.488848921 0.49676259 0.50323741 0.508992806 0.491007194 0.494604317 0.505395683 0.498920863 0.501079137 0.484532374 0.515467626 0.524820144 0.475179856 0.510431655 0.489568345 0.514748201 0.485251799 0.500359712 0.499640288 0.512589928 0.487410072 0.498201439 0.501798561 0.502517986 0.497482014 0.488129496 0.511870504 0.516906475 0.483093525 0.502517986 0.497482014 0.5068345319999999 0.493165468 0.492446043 0.5075539569999999 0.504676259 0.495323741 0.49028777 0.50971223 0.494604317 0.505395683 0.480215827 0.519784173 0.525539568 0.474460432 0.511151079 0.488848921 0.515467626 0.484532374 0.501079137 0.498920863 0.513309353 0.486690647 0.498920863 0.501079137 0.50323741 0.49676259 0.488848921 0.511151079 0.517625899 0.482374101 0.50323741 0.49676259 0.5075539569999999 0.492446043 0.493165468 0.5068345319999999 0.505395683 0.494604317 0.491007194 0.508992806 0.495323741 0.504676259 0.480935252 0.519064748 0.521223022 0.478776978 0.5068345319999999 0.493165468 0.511151079 0.488848921 0.49676259 0.50323741 0.508992806 0.491007194 0.494604317 0.505395683 0.498920863 0.501079137 0.484532374 0.515467626 0.513309353 0.486690647 0.498920863 0.501079137 0.50323741 0.49676259 0.488848921 0.511151079 0.501079137 0.498920863 0.486690647 0.513309353 0.491007194 0.508992806 0.476618705 0.523381295 0.519064748 0.480935252 0.504676259 0.495323741 0.508992806 0.491007194 0.494604317 0.505395683 0.5068345319999999 0.493165468 0.492446043 0.5075539569999999 0.49676259 0.50323741 0.482374101 0.517625899 0.511151079 0.488848921 0.49676259 0.50323741 0.501079137 0.498920863 0.486690647 0.513309353 0.498920863 0.501079137 0.484532374 0.515467626 0.488848921 0.511151079 0.474460432 0.525539568 0.514748201 0.485251799 0.500359712 0.499640288 0.504676259 0.495323741 0.49028777 0.50971223 0.502517986 0.497482014 0.488129496 0.511870504 0.492446043 0.5075539569999999 0.478057554 0.5219424459999999 0.5068345319999999 0.493165468 0.492446043 0.5075539569999999 0.49676259 0.50323741 0.482374101 0.517625899 0.494604317 0.505395683 0.480215827 0.519784173 0.484532374 0.515467626 0.470143885 0.529856115 0.547122302 0.452877698 0.532733813 0.467266187 0.5370503599999999 0.46294964 0.5226618709999999 0.477338129 0.534892086 0.465107914 0.520503597 0.479496403 0.524820144 0.475179856 0.510431655 0.489568345 0.539208633 0.460791367 0.524820144 0.475179856 0.529136691 0.470863309 0.514748201 0.485251799 0.526978417 0.473021583 0.512589928 0.487410072 0.516906475 0.483093525 0.502517986 0.497482014 0.5428057549999999 0.457194245 0.5284172660000001 0.471582734 0.532733813 0.467266187 0.518345324 0.481654676 0.53057554 0.46942446 0.51618705 0.48381295 0.520503597 0.479496403 0.506115108 0.493884892 0.534892086 0.465107914 0.520503597 0.479496403 0.524820144 0.475179856 0.510431655 0.489568345 0.5226618709999999 0.477338129 0.508273381 0.491726619 0.512589928 0.487410072 0.498201439 0.501798561 0.540647482 0.459352518 0.526258993 0.473741007 0.53057554 0.46942446 0.51618705 0.48381295 0.5284172660000001 0.471582734 0.514028777 0.485971223 0.518345324 0.481654676 0.503956835 0.496043165 0.532733813 0.467266187 0.518345324 0.481654676 0.5226618709999999 0.477338129 0.508273381 0.491726619 0.520503597 0.479496403 0.506115108 0.493884892 0.510431655 0.489568345 0.496043165 0.503956835 0.536330935 0.463669065 0.5219424459999999 0.478057554 0.526258993 0.473741007 0.511870504 0.488129496 0.524100719 0.475899281 0.50971223 0.49028777 0.514028777 0.485971223 0.499640288 0.500359712 0.5284172660000001 0.471582734 0.514028777 0.485971223 0.518345324 0.481654676 0.503956835 0.496043165 0.51618705 0.48381295 0.501798561 0.498201439 0.506115108 0.493884892 0.491726619 0.508273381 0.5370503599999999 0.46294964 0.5226618709999999 0.477338129 0.526978417 0.473021583 0.512589928 0.487410072 0.524820144 0.475179856 0.510431655 0.489568345 0.514748201 0.485251799 0.500359712 0.499640288 0.529136691 0.470863309 0.514748201 0.485251799 0.519064748 0.480935252 0.504676259 0.495323741 0.516906475 0.483093525 0.502517986 0.497482014 0.5068345319999999 0.493165468 0.492446043 0.5075539569999999 0.532733813 0.467266187 0.518345324 0.481654676 0.5226618709999999 0.477338129 0.508273381 0.491726619 0.520503597 0.479496403 0.506115108 0.493884892 0.510431655 0.489568345 0.496043165 0.503956835 0.524820144 0.475179856 0.510431655 0.489568345 0.514748201 0.485251799 0.500359712 0.499640288 0.512589928 0.487410072 0.498201439 0.501798561 0.502517986 0.497482014 0.488129496 0.511870504 0.53057554 0.46942446 0.51618705 0.48381295 0.520503597 0.479496403 0.506115108 0.493884892 0.518345324 0.481654676 0.503956835 0.496043165 0.508273381 0.491726619 0.493884892 0.506115108 0.5226618709999999 0.477338129 0.508273381 0.491726619 0.512589928 0.487410072 0.498201439 0.501798561 0.510431655 0.489568345 0.496043165 0.503956835 0.500359712 0.499640288 0.485971223 0.514028777 0.526258993 0.473741007 0.511870504 0.488129496 0.51618705 0.48381295 0.501798561 0.498201439 0.514028777 0.485971223 0.499640288 0.500359712 0.503956835 0.496043165 0.489568345 0.510431655 0.518345324 0.481654676 0.503956835 0.496043165 0.508273381 0.491726619 0.493884892 0.506115108 0.506115108 0.493884892 0.491726619 0.508273381 0.496043165 0.503956835 0.481654676 0.518345324 0.544244604 0.455755396 0.529856115 0.470143885 0.534172662 0.465827338 0.519784173 0.480215827 0.532014388 0.467985612 0.517625899 0.482374101 0.5219424459999999 0.478057554 0.5075539569999999 0.492446043 0.536330935 0.463669065 0.5219424459999999 0.478057554 0.526258993 0.473741007 0.511870504 0.488129496 0.524100719 0.475899281 0.50971223 0.49028777 0.514028777 0.485971223 0.499640288 0.500359712 0.539928058 0.460071942 0.525539568 0.474460432 0.529856115 0.470143885 0.515467626 0.484532374 0.527697842 0.472302158 0.513309353 0.486690647 0.517625899 0.482374101 0.50323741 0.49676259 0.532014388 0.467985612 0.517625899 0.482374101 0.5219424459999999 0.478057554 0.5075539569999999 0.492446043 0.519784173 0.480215827 0.505395683 0.494604317 0.50971223 0.49028777 0.495323741 0.504676259 0.537769784 0.462230216 0.523381295 0.476618705 0.527697842 0.472302158 0.513309353 0.486690647 0.525539568 0.474460432 0.511151079 0.488848921 0.515467626 0.484532374 0.501079137 0.498920863 0.529856115 0.470143885 0.515467626 0.484532374 0.519784173 0.480215827 0.505395683 0.494604317 0.517625899 0.482374101 0.50323741 0.49676259 0.5075539569999999 0.492446043 0.493165468 0.5068345319999999 0.533453237 0.466546763 0.519064748 0.480935252 0.523381295 0.476618705 0.508992806 0.491007194 0.521223022 0.478776978 0.5068345319999999 0.493165468 0.511151079 0.488848921 0.49676259 0.50323741 0.525539568 0.474460432 0.511151079 0.488848921 0.515467626 0.484532374 0.501079137 0.498920863 0.513309353 0.486690647 0.498920863 0.501079137 0.50323741 0.49676259 0.488848921 0.511151079 0.534172662 0.465827338 0.519784173 0.480215827 0.524100719 0.475899281 0.50971223 0.49028777 0.5219424459999999 0.478057554 0.5075539569999999 0.492446043 0.511870504 0.488129496 0.497482014 0.502517986 0.526258993 0.473741007 0.511870504 0.488129496 0.51618705 0.48381295 0.501798561 0.498201439 0.514028777 0.485971223 0.499640288 0.500359712 0.503956835 0.496043165 0.489568345 0.510431655 0.529856115 0.470143885 0.515467626 0.484532374 0.519784173 0.480215827 0.505395683 0.494604317 0.517625899 0.482374101 0.50323741 0.49676259 0.5075539569999999 0.492446043 0.493165468 0.5068345319999999 0.5219424459999999 0.478057554 0.5075539569999999 0.492446043 0.511870504 0.488129496 0.497482014 0.502517986 0.50971223 0.49028777 0.495323741 0.504676259 0.499640288 0.500359712 0.485251799 0.514748201 0.527697842 0.472302158 0.513309353 0.486690647 0.517625899 0.482374101 0.50323741 0.49676259 0.515467626 0.484532374 0.501079137 0.498920863 0.505395683 0.494604317 0.491007194 0.508992806 0.519784173 0.480215827 0.505395683 0.494604317 0.50971223 0.49028777 0.495323741 0.504676259 0.5075539569999999 0.492446043 0.493165468 0.5068345319999999 0.497482014 0.502517986 0.483093525 0.516906475 0.523381295 0.476618705 0.508992806 0.491007194 0.513309353 0.486690647 0.498920863 0.501079137 0.511151079 0.488848921 0.49676259 0.50323741 0.501079137 0.498920863 0.486690647 0.513309353 0.515467626 0.484532374 0.501079137 0.498920863 0.505395683 0.494604317 0.491007194 0.508992806 0.50323741 0.49676259 0.488848921 0.511151079 0.493165468 0.5068345319999999 0.478776978 0.521223022 0.535611511 0.464388489 0.521223022 0.478776978 0.525539568 0.474460432 0.511151079 0.488848921 0.523381295 0.476618705 0.508992806 0.491007194 0.513309353 0.486690647 0.498920863 0.501079137 0.527697842 0.472302158 0.513309353 0.486690647 0.517625899 0.482374101 0.50323741 0.49676259 0.515467626 0.484532374 0.501079137 0.498920863 0.505395683 0.494604317 0.491007194 0.508992806 0.531294964 0.468705036 0.516906475 0.483093525 0.521223022 0.478776978 0.5068345319999999 0.493165468 0.519064748 0.480935252 0.504676259 0.495323741 0.508992806 0.491007194 0.494604317 0.505395683 0.523381295 0.476618705 0.508992806 0.491007194 0.513309353 0.486690647 0.498920863 0.501079137 0.511151079 0.488848921 0.49676259 0.50323741 0.501079137 0.498920863 0.486690647 0.513309353 0.529136691 0.470863309 0.514748201 0.485251799 0.519064748 0.480935252 0.504676259 0.495323741 0.516906475 0.483093525 0.502517986 0.497482014 0.5068345319999999 0.493165468 0.492446043 0.5075539569999999 0.521223022 0.478776978 0.5068345319999999 0.493165468 0.511151079 0.488848921 0.49676259 0.50323741 0.508992806 0.491007194 0.494604317 0.505395683 0.498920863 0.501079137 0.484532374 0.515467626 0.524820144 0.475179856 0.510431655 0.489568345 0.514748201 0.485251799 0.500359712 0.499640288 0.512589928 0.487410072 0.498201439 0.501798561 0.502517986 0.497482014 0.488129496 0.511870504 0.516906475 0.483093525 0.502517986 0.497482014 0.5068345319999999 0.493165468 0.492446043 0.5075539569999999 0.504676259 0.495323741 0.49028777 0.50971223 0.494604317 0.505395683 0.480215827 0.519784173 0.525539568 0.474460432 0.511151079 0.488848921 0.515467626 0.484532374 0.501079137 0.498920863 0.513309353 0.486690647 0.498920863 0.501079137 0.50323741 0.49676259 0.488848921 0.511151079 0.517625899 0.482374101 0.50323741 0.49676259 0.5075539569999999 0.492446043 0.493165468 0.5068345319999999 0.505395683 0.494604317 0.491007194 0.508992806 0.495323741 0.504676259 0.480935252 0.519064748 0.521223022 0.478776978 0.5068345319999999 0.493165468 0.511151079 0.488848921 0.49676259 0.50323741 0.508992806 0.491007194 0.494604317 0.505395683 0.498920863 0.501079137 0.484532374 0.515467626 0.513309353 0.486690647 0.498920863 0.501079137 0.50323741 0.49676259 0.488848921 0.511151079 0.501079137 0.498920863 0.486690647 0.513309353 0.491007194 0.508992806 0.476618705 0.523381295 0.519064748 0.480935252 0.504676259 0.495323741 0.508992806 0.491007194 0.494604317 0.505395683 0.5068345319999999 0.493165468 0.492446043 0.5075539569999999 0.49676259 0.50323741 0.482374101 0.517625899 0.511151079 0.488848921 0.49676259 0.50323741 0.501079137 0.498920863 0.486690647 0.513309353 0.498920863 0.501079137 0.484532374 0.515467626 0.488848921 0.511151079 0.474460432 0.525539568 0.514748201 0.485251799 0.500359712 0.499640288 0.504676259 0.495323741 0.49028777 0.50971223 0.502517986 0.497482014 0.488129496 0.511870504 0.492446043 0.5075539569999999 0.478057554 0.5219424459999999 0.5068345319999999 0.493165468 0.492446043 0.5075539569999999 0.49676259 0.50323741 0.482374101 0.517625899 0.494604317 0.505395683 0.480215827 0.519784173 0.484532374 0.515467626 0.470143885 0.529856115 0.532733813 0.467266187 0.518345324 0.481654676 0.5226618709999999 0.477338129 0.508273381 0.491726619 0.520503597 0.479496403 0.506115108 0.493884892 0.510431655 0.489568345 0.496043165 0.503956835 0.524820144 0.475179856 0.510431655 0.489568345 0.514748201 0.485251799 0.500359712 0.499640288 0.512589928 0.487410072 0.498201439 0.501798561 0.502517986 0.497482014 0.488129496 0.511870504 0.5284172660000001 0.471582734 0.514028777 0.485971223 0.518345324 0.481654676 0.503956835 0.496043165 0.51618705 0.48381295 0.501798561 0.498201439 0.506115108 0.493884892 0.491726619 0.508273381 0.520503597 0.479496403 0.506115108 0.493884892 0.510431655 0.489568345 0.496043165 0.503956835 0.508273381 0.491726619 0.493884892 0.506115108 0.498201439 0.501798561 0.48381295 0.51618705 0.526258993 0.473741007 0.511870504 0.488129496 0.51618705 0.48381295 0.501798561 0.498201439 0.514028777 0.485971223 0.499640288 0.500359712 0.503956835 0.496043165 0.489568345 0.510431655 0.518345324 0.481654676 0.503956835 0.496043165 0.508273381 0.491726619 0.493884892 0.506115108 0.506115108 0.493884892 0.491726619 0.508273381 0.496043165 0.503956835 0.481654676 0.518345324 0.5219424459999999 0.478057554 0.5075539569999999 0.492446043 0.511870504 0.488129496 0.497482014 0.502517986 0.50971223 0.49028777 0.495323741 0.504676259 0.499640288 0.500359712 0.485251799 0.514748201 0.514028777 0.485971223 0.499640288 0.500359712 0.503956835 0.496043165 0.489568345 0.510431655 0.501798561 0.498201439 0.487410072 0.512589928 0.491726619 0.508273381 0.477338129 0.5226618709999999 0.5226618709999999 0.477338129 0.508273381 0.491726619 0.512589928 0.487410072 0.498201439 0.501798561 0.510431655 0.489568345 0.496043165 0.503956835 0.500359712 0.499640288 0.485971223 0.514028777 0.514748201 0.485251799 0.500359712 0.499640288 0.504676259 0.495323741 0.49028777 0.50971223 0.502517986 0.497482014 0.488129496 0.511870504 0.492446043 0.5075539569999999 0.478057554 0.5219424459999999 0.518345324 0.481654676 0.503956835 0.496043165 0.508273381 0.491726619 0.493884892 0.506115108 0.506115108 0.493884892 0.491726619 0.508273381 0.496043165 0.503956835 0.481654676 0.518345324 0.510431655 0.489568345 0.496043165 0.503956835 0.500359712 0.499640288 0.485971223 0.514028777 0.498201439 0.501798561 0.48381295 0.51618705 0.488129496 0.511870504 0.473741007 0.526258993 0.51618705 0.48381295 0.501798561 0.498201439 0.506115108 0.493884892 0.491726619 0.508273381 0.503956835 0.496043165 0.489568345 0.510431655 0.493884892 0.506115108 0.479496403 0.520503597 0.508273381 0.491726619 0.493884892 0.506115108 0.498201439 0.501798561 0.48381295 0.51618705 0.496043165 0.503956835 0.481654676 0.518345324 0.485971223 0.514028777 0.471582734 0.5284172660000001 0.511870504 0.488129496 0.497482014 0.502517986 0.501798561 0.498201439 0.487410072 0.512589928 0.499640288 0.500359712 0.485251799 0.514748201 0.489568345 0.510431655 0.475179856 0.524820144 0.503956835 0.496043165 0.489568345 0.510431655 0.493884892 0.506115108 0.479496403 0.520503597 0.491726619 0.508273381 0.477338129 0.5226618709999999 0.481654676 0.518345324 0.467266187 0.532733813 0.548561151 0.451438849 0.534172662 0.465827338 0.538489209 0.461510791 0.524100719 0.475899281 0.536330935 0.463669065 0.5219424459999999 0.478057554 0.526258993 0.473741007 0.511870504 0.488129496 0.540647482 0.459352518 0.526258993 0.473741007 0.53057554 0.46942446 0.51618705 0.48381295 0.5284172660000001 0.471582734 0.514028777 0.485971223 0.518345324 0.481654676 0.503956835 0.496043165 0.544244604 0.455755396 0.529856115 0.470143885 0.534172662 0.465827338 0.519784173 0.480215827 0.532014388 0.467985612 0.517625899 0.482374101 0.5219424459999999 0.478057554 0.5075539569999999 0.492446043 0.536330935 0.463669065 0.5219424459999999 0.478057554 0.526258993 0.473741007 0.511870504 0.488129496 0.524100719 0.475899281 0.50971223 0.49028777 0.514028777 0.485971223 0.499640288 0.500359712 0.542086331 0.457913669 0.527697842 0.472302158 0.532014388 0.467985612 0.517625899 0.482374101 0.529856115 0.470143885 0.515467626 0.484532374 0.519784173 0.480215827 0.505395683 0.494604317 0.534172662 0.465827338 0.519784173 0.480215827 0.524100719 0.475899281 0.50971223 0.49028777 0.5219424459999999 0.478057554 0.5075539569999999 0.492446043 0.511870504 0.488129496 0.497482014 0.502517986 0.537769784 0.462230216 0.523381295 0.476618705 0.527697842 0.472302158 0.513309353 0.486690647 0.525539568 0.474460432 0.511151079 0.488848921 0.515467626 0.484532374 0.501079137 0.498920863 0.529856115 0.470143885 0.515467626 0.484532374 0.519784173 0.480215827 0.505395683 0.494604317 0.517625899 0.482374101 0.50323741 0.49676259 0.5075539569999999 0.492446043 0.493165468 0.5068345319999999 0.538489209 0.461510791 0.524100719 0.475899281 0.5284172660000001 0.471582734 0.514028777 0.485971223 0.526258993 0.473741007 0.511870504 0.488129496 0.51618705 0.48381295 0.501798561 0.498201439 0.53057554 0.46942446 0.51618705 0.48381295 0.520503597 0.479496403 0.506115108 0.493884892 0.518345324 0.481654676 0.503956835 0.496043165 0.508273381 0.491726619 0.493884892 0.506115108 0.534172662 0.465827338 0.519784173 0.480215827 0.524100719 0.475899281 0.50971223 0.49028777 0.5219424459999999 0.478057554 0.5075539569999999 0.492446043 0.511870504 0.488129496 0.497482014 0.502517986 0.526258993 0.473741007 0.511870504 0.488129496 0.51618705 0.48381295 0.501798561 0.498201439 0.514028777 0.485971223 0.499640288 0.500359712 0.503956835 0.496043165 0.489568345 0.510431655 0.532014388 0.467985612 0.517625899 0.482374101 0.5219424459999999 0.478057554 0.5075539569999999 0.492446043 0.519784173 0.480215827 0.505395683 0.494604317 0.50971223 0.49028777 0.495323741 0.504676259 0.524100719 0.475899281 0.50971223 0.49028777 0.514028777 0.485971223 0.499640288 0.500359712 0.511870504 0.488129496 0.497482014 0.502517986 0.501798561 0.498201439 0.487410072 0.512589928 0.527697842 0.472302158 0.513309353 0.486690647 0.517625899 0.482374101 0.50323741 0.49676259 0.515467626 0.484532374 0.501079137 0.498920863 0.505395683 0.494604317 0.491007194 0.508992806 0.519784173 0.480215827 0.505395683 0.494604317 0.50971223 0.49028777 0.495323741 0.504676259 0.5075539569999999 0.492446043 0.493165468 0.5068345319999999 0.497482014 0.502517986 0.483093525 0.516906475 0.545683453 0.454316547 0.531294964 0.468705036 0.535611511 0.464388489 0.521223022 0.478776978 0.533453237 0.466546763 0.519064748 0.480935252 0.523381295 0.476618705 0.508992806 0.491007194 0.537769784 0.462230216 0.523381295 0.476618705 0.527697842 0.472302158 0.513309353 0.486690647 0.525539568 0.474460432 0.511151079 0.488848921 0.515467626 0.484532374 0.501079137 0.498920863 0.541366906 0.458633094 0.526978417 0.473021583 0.531294964 0.468705036 0.516906475 0.483093525 0.529136691 0.470863309 0.514748201 0.485251799 0.519064748 0.480935252 0.504676259 0.495323741 0.533453237 0.466546763 0.519064748 0.480935252 0.523381295 0.476618705 0.508992806 0.491007194 0.521223022 0.478776978 0.5068345319999999 0.493165468 0.511151079 0.488848921 0.49676259 0.50323741 0.539208633 0.460791367 0.524820144 0.475179856 0.529136691 0.470863309 0.514748201 0.485251799 0.526978417 0.473021583 0.512589928 0.487410072 0.516906475 0.483093525 0.502517986 0.497482014 0.531294964 0.468705036 0.516906475 0.483093525 0.521223022 0.478776978 0.5068345319999999 0.493165468 0.519064748 0.480935252 0.504676259 0.495323741 0.508992806 0.491007194 0.494604317 0.505395683 0.534892086 0.465107914 0.520503597 0.479496403 0.524820144 0.475179856 0.510431655 0.489568345 0.5226618709999999 0.477338129 0.508273381 0.491726619 0.512589928 0.487410072 0.498201439 0.501798561 0.526978417 0.473021583 0.512589928 0.487410072 0.516906475 0.483093525 0.502517986 0.497482014 0.514748201 0.485251799 0.500359712 0.499640288 0.504676259 0.495323741 0.49028777 0.50971223 0.535611511 0.464388489 0.521223022 0.478776978 0.525539568 0.474460432 0.511151079 0.488848921 0.523381295 0.476618705 0.508992806 0.491007194 0.513309353 0.486690647 0.498920863 0.501079137 0.527697842 0.472302158 0.513309353 0.486690647 0.517625899 0.482374101 0.50323741 0.49676259 0.515467626 0.484532374 0.501079137 0.498920863 0.505395683 0.494604317 0.491007194 0.508992806 0.531294964 0.468705036 0.516906475 0.483093525 0.521223022 0.478776978 0.5068345319999999 0.493165468 0.519064748 0.480935252 0.504676259 0.495323741 0.508992806 0.491007194 0.494604317 0.505395683 0.523381295 0.476618705 0.508992806 0.491007194 0.513309353 0.486690647 0.498920863 0.501079137 0.511151079 0.488848921 0.49676259 0.50323741 0.501079137 0.498920863 0.486690647 0.513309353 0.529136691 0.470863309 0.514748201 0.485251799 0.519064748 0.480935252 0.504676259 0.495323741 0.516906475 0.483093525 0.502517986 0.497482014 0.5068345319999999 0.493165468 0.492446043 0.5075539569999999 0.521223022 0.478776978 0.5068345319999999 0.493165468 0.511151079 0.488848921 0.49676259 0.50323741 0.508992806 0.491007194 0.494604317 0.505395683 0.498920863 0.501079137 0.484532374 0.515467626 0.524820144 0.475179856 0.510431655 0.489568345 0.514748201 0.485251799 0.500359712 0.499640288 0.512589928 0.487410072 0.498201439 0.501798561 0.502517986 0.497482014 0.488129496 0.511870504 0.516906475 0.483093525 0.502517986 0.497482014 0.5068345319999999 0.493165468 0.492446043 0.5075539569999999 0.504676259 0.495323741 0.49028777 0.50971223 0.494604317 0.505395683 0.480215827 0.519784173 0.5370503599999999 0.46294964 0.5226618709999999 0.477338129 0.526978417 0.473021583 0.512589928 0.487410072 0.524820144 0.475179856 0.510431655 0.489568345 0.514748201 0.485251799 0.500359712 0.499640288 0.529136691 0.470863309 0.514748201 0.485251799 0.519064748 0.480935252 0.504676259 0.495323741 0.516906475 0.483093525 0.502517986 0.497482014 0.5068345319999999 0.493165468 0.492446043 0.5075539569999999 0.532733813 0.467266187 0.518345324 0.481654676 0.5226618709999999 0.477338129 0.508273381 0.491726619 0.520503597 0.479496403 0.506115108 0.493884892 0.510431655 0.489568345 0.496043165 0.503956835 0.524820144 0.475179856 0.510431655 0.489568345 0.514748201 0.485251799 0.500359712 0.499640288 0.512589928 0.487410072 0.498201439 0.501798561 0.502517986 0.497482014 0.488129496 0.511870504 0.53057554 0.46942446 0.51618705 0.48381295 0.520503597 0.479496403 0.506115108 0.493884892 0.518345324 0.481654676 0.503956835 0.496043165 0.508273381 0.491726619 0.493884892 0.506115108 0.5226618709999999 0.477338129 0.508273381 0.491726619 0.512589928 0.487410072 0.498201439 0.501798561 0.510431655 0.489568345 0.496043165 0.503956835 0.500359712 0.499640288 0.485971223 0.514028777 0.526258993 0.473741007 0.511870504 0.488129496 0.51618705 0.48381295 0.501798561 0.498201439 0.514028777 0.485971223 0.499640288 0.500359712 0.503956835 0.496043165 0.489568345 0.510431655 0.518345324 0.481654676 0.503956835 0.496043165 0.508273381 0.491726619 0.493884892 0.506115108 0.506115108 0.493884892 0.491726619 0.508273381 0.496043165 0.503956835 0.481654676 0.518345324 0.526978417 0.473021583 0.512589928 0.487410072 0.516906475 0.483093525 0.502517986 0.497482014 0.514748201 0.485251799 0.500359712 0.499640288 0.504676259 0.495323741 0.49028777 0.50971223 0.519064748 0.480935252 0.504676259 0.495323741 0.508992806 0.491007194 0.494604317 0.505395683 0.5068345319999999 0.493165468 0.492446043 0.5075539569999999 0.49676259 0.50323741 0.482374101 0.517625899 0.5226618709999999 0.477338129 0.508273381 0.491726619 0.512589928 0.487410072 0.498201439 0.501798561 0.510431655 0.489568345 0.496043165 0.503956835 0.500359712 0.499640288 0.485971223 0.514028777 0.514748201 0.485251799 0.500359712 0.499640288 0.504676259 0.495323741 0.49028777 0.50971223 0.502517986 0.497482014 0.488129496 0.511870504 0.492446043 0.5075539569999999 0.478057554 0.5219424459999999 0.520503597 0.479496403 0.506115108 0.493884892 0.510431655 0.489568345 0.496043165 0.503956835 0.508273381 0.491726619 0.493884892 0.506115108 0.498201439 0.501798561 0.48381295 0.51618705 0.512589928 0.487410072 0.498201439 0.501798561 0.502517986 0.497482014 0.488129496 0.511870504 0.500359712 0.499640288 0.485971223 0.514028777 0.49028777 0.50971223 0.475899281 0.524100719 0.51618705 0.48381295 0.501798561 0.498201439 0.506115108 0.493884892 0.491726619 0.508273381 0.503956835 0.496043165 0.489568345 0.510431655 0.493884892 0.506115108 0.479496403 0.520503597 0.508273381 0.491726619 0.493884892 0.506115108 0.498201439 0.501798561 0.48381295 0.51618705 0.496043165 0.503956835 0.481654676 0.518345324 0.485971223 0.514028777 0.471582734 0.5284172660000001 0.534172662 0.465827338 0.519784173 0.480215827 0.524100719 0.475899281 0.50971223 0.49028777 0.5219424459999999 0.478057554 0.5075539569999999 0.492446043 0.511870504 0.488129496 0.497482014 0.502517986 0.526258993 0.473741007 0.511870504 0.488129496 0.51618705 0.48381295 0.501798561 0.498201439 0.514028777 0.485971223 0.499640288 0.500359712 0.503956835 0.496043165 0.489568345 0.510431655 0.529856115 0.470143885 0.515467626 0.484532374 0.519784173 0.480215827 0.505395683 0.494604317 0.517625899 0.482374101 0.50323741 0.49676259 0.5075539569999999 0.492446043 0.493165468 0.5068345319999999 0.5219424459999999 0.478057554 0.5075539569999999 0.492446043 0.511870504 0.488129496 0.497482014 0.502517986 0.50971223 0.49028777 0.495323741 0.504676259 0.499640288 0.500359712 0.485251799 0.514748201 0.527697842 0.472302158 0.513309353 0.486690647 0.517625899 0.482374101 0.50323741 0.49676259 0.515467626 0.484532374 0.501079137 0.498920863 0.505395683 0.494604317 0.491007194 0.508992806 0.519784173 0.480215827 0.505395683 0.494604317 0.50971223 0.49028777 0.495323741 0.504676259 0.5075539569999999 0.492446043 0.493165468 0.5068345319999999 0.497482014 0.502517986 0.483093525 0.516906475 0.523381295 0.476618705 0.508992806 0.491007194 0.513309353 0.486690647 0.498920863 0.501079137 0.511151079 0.488848921 0.49676259 0.50323741 0.501079137 0.498920863 0.486690647 0.513309353 0.515467626 0.484532374 0.501079137 0.498920863 0.505395683 0.494604317 0.491007194 0.508992806 0.50323741 0.49676259 0.488848921 0.511151079 0.493165468 0.5068345319999999 0.478776978 0.521223022 0.524100719 0.475899281 0.50971223 0.49028777 0.514028777 0.485971223 0.499640288 0.500359712 0.511870504 0.488129496 0.497482014 0.502517986 0.501798561 0.498201439 0.487410072 0.512589928 0.51618705 0.48381295 0.501798561 0.498201439 0.506115108 0.493884892 0.491726619 0.508273381 0.503956835 0.496043165 0.489568345 0.510431655 0.493884892 0.506115108 0.479496403 0.520503597 0.519784173 0.480215827 0.505395683 0.494604317 0.50971223 0.49028777 0.495323741 0.504676259 0.5075539569999999 0.492446043 0.493165468 0.5068345319999999 0.497482014 0.502517986 0.483093525 0.516906475 0.511870504 0.488129496 0.497482014 0.502517986 0.501798561 0.498201439 0.487410072 0.512589928 0.499640288 0.500359712 0.485251799 0.514748201 0.489568345 0.510431655 0.475179856 0.524820144 0.517625899 0.482374101 0.50323741 0.49676259 0.5075539569999999 0.492446043 0.493165468 0.5068345319999999 0.505395683 0.494604317 0.491007194 0.508992806 0.495323741 0.504676259 0.480935252 0.519064748 0.50971223 0.49028777 0.495323741 0.504676259 0.499640288 0.500359712 0.485251799 0.514748201 0.497482014 0.502517986 0.483093525 0.516906475 0.487410072 0.512589928 0.473021583 0.526978417 0.513309353 0.486690647 0.498920863 0.501079137 0.50323741 0.49676259 0.488848921 0.511151079 0.501079137 0.498920863 0.486690647 0.513309353 0.491007194 0.508992806 0.476618705 0.523381295 0.505395683 0.494604317 0.491007194 0.508992806 0.495323741 0.504676259 0.480935252 0.519064748 0.493165468 0.5068345319999999 0.478776978 0.521223022 0.483093525 0.516906475 0.468705036 0.531294964 0.545683453 0.454316547 0.531294964 0.468705036 0.535611511 0.464388489 0.521223022 0.478776978 0.533453237 0.466546763 0.519064748 0.480935252 0.523381295 0.476618705 0.508992806 0.491007194 0.537769784 0.462230216 0.523381295 0.476618705 0.527697842 0.472302158 0.513309353 0.486690647 0.525539568 0.474460432 0.511151079 0.488848921 0.515467626 0.484532374 0.501079137 0.498920863 0.541366906 0.458633094 0.526978417 0.473021583 0.531294964 0.468705036 0.516906475 0.483093525 0.529136691 0.470863309 0.514748201 0.485251799 0.519064748 0.480935252 0.504676259 0.495323741 0.533453237 0.466546763 0.519064748 0.480935252 0.523381295 0.476618705 0.508992806 0.491007194 0.521223022 0.478776978 0.5068345319999999 0.493165468 0.511151079 0.488848921 0.49676259 0.50323741 0.539208633 0.460791367 0.524820144 0.475179856 0.529136691 0.470863309 0.514748201 0.485251799 0.526978417 0.473021583 0.512589928 0.487410072 0.516906475 0.483093525 0.502517986 0.497482014 0.531294964 0.468705036 0.516906475 0.483093525 0.521223022 0.478776978 0.5068345319999999 0.493165468 0.519064748 0.480935252 0.504676259 0.495323741 0.508992806 0.491007194 0.494604317 0.505395683 0.534892086 0.465107914 0.520503597 0.479496403 0.524820144 0.475179856 0.510431655 0.489568345 0.5226618709999999 0.477338129 0.508273381 0.491726619 0.512589928 0.487410072 0.498201439 0.501798561 0.526978417 0.473021583 0.512589928 0.487410072 0.516906475 0.483093525 0.502517986 0.497482014 0.514748201 0.485251799 0.500359712 0.499640288 0.504676259 0.495323741 0.49028777 0.50971223 0.535611511 0.464388489 0.521223022 0.478776978 0.525539568 0.474460432 0.511151079 0.488848921 0.523381295 0.476618705 0.508992806 0.491007194 0.513309353 0.486690647 0.498920863 0.501079137 0.527697842 0.472302158 0.513309353 0.486690647 0.517625899 0.482374101 0.50323741 0.49676259 0.515467626 0.484532374 0.501079137 0.498920863 0.505395683 0.494604317 0.491007194 0.508992806 0.531294964 0.468705036 0.516906475 0.483093525 0.521223022 0.478776978 0.5068345319999999 0.493165468 0.519064748 0.480935252 0.504676259 0.495323741 0.508992806 0.491007194 0.494604317 0.505395683 0.523381295 0.476618705 0.508992806 0.491007194 0.513309353 0.486690647 0.498920863 0.501079137 0.511151079 0.488848921 0.49676259 0.50323741 0.501079137 0.498920863 0.486690647 0.513309353 0.529136691 0.470863309 0.514748201 0.485251799 0.519064748 0.480935252 0.504676259 0.495323741 0.516906475 0.483093525 0.502517986 0.497482014 0.5068345319999999 0.493165468 0.492446043 0.5075539569999999 0.521223022 0.478776978 0.5068345319999999 0.493165468 0.511151079 0.488848921 0.49676259 0.50323741 0.508992806 0.491007194 0.494604317 0.505395683 0.498920863 0.501079137 0.484532374 0.515467626 0.524820144 0.475179856 0.510431655 0.489568345 0.514748201 0.485251799 0.500359712 0.499640288 0.512589928 0.487410072 0.498201439 0.501798561 0.502517986 0.497482014 0.488129496 0.511870504 0.516906475 0.483093525 0.502517986 0.497482014 0.5068345319999999 0.493165468 0.492446043 0.5075539569999999 0.504676259 0.495323741 0.49028777 0.50971223 0.494604317 0.505395683 0.480215827 0.519784173 0.5428057549999999 0.457194245 0.5284172660000001 0.471582734 0.532733813 0.467266187 0.518345324 0.481654676 0.53057554 0.46942446 0.51618705 0.48381295 0.520503597 0.479496403 0.506115108 0.493884892 0.534892086 0.465107914 0.520503597 0.479496403 0.524820144 0.475179856 0.510431655 0.489568345 0.5226618709999999 0.477338129 0.508273381 0.491726619 0.512589928 0.487410072 0.498201439 0.501798561 0.538489209 0.461510791 0.524100719 0.475899281 0.5284172660000001 0.471582734 0.514028777 0.485971223 0.526258993 0.473741007 0.511870504 0.488129496 0.51618705 0.48381295 0.501798561 0.498201439 0.53057554 0.46942446 0.51618705 0.48381295 0.520503597 0.479496403 0.506115108 0.493884892 0.518345324 0.481654676 0.503956835 0.496043165 0.508273381 0.491726619 0.493884892 0.506115108 0.536330935 0.463669065 0.5219424459999999 0.478057554 0.526258993 0.473741007 0.511870504 0.488129496 0.524100719 0.475899281 0.50971223 0.49028777 0.514028777 0.485971223 0.499640288 0.500359712 0.5284172660000001 0.471582734 0.514028777 0.485971223 0.518345324 0.481654676 0.503956835 0.496043165 0.51618705 0.48381295 0.501798561 0.498201439 0.506115108 0.493884892 0.491726619 0.508273381 0.532014388 0.467985612 0.517625899 0.482374101 0.5219424459999999 0.478057554 0.5075539569999999 0.492446043 0.519784173 0.480215827 0.505395683 0.494604317 0.50971223 0.49028777 0.495323741 0.504676259 0.524100719 0.475899281 0.50971223 0.49028777 0.514028777 0.485971223 0.499640288 0.500359712 0.511870504 0.488129496 0.497482014 0.502517986 0.501798561 0.498201439 0.487410072 0.512589928 0.532733813 0.467266187 0.518345324 0.481654676 0.5226618709999999 0.477338129 0.508273381 0.491726619 0.520503597 0.479496403 0.506115108 0.493884892 0.510431655 0.489568345 0.496043165 0.503956835 0.524820144 0.475179856 0.510431655 0.489568345 0.514748201 0.485251799 0.500359712 0.499640288 0.512589928 0.487410072 0.498201439 0.501798561 0.502517986 0.497482014 0.488129496 0.511870504 0.5284172660000001 0.471582734 0.514028777 0.485971223 0.518345324 0.481654676 0.503956835 0.496043165 0.51618705 0.48381295 0.501798561 0.498201439 0.506115108 0.493884892 0.491726619 0.508273381 0.520503597 0.479496403 0.506115108 0.493884892 0.510431655 0.489568345 0.496043165 0.503956835 0.508273381 0.491726619 0.493884892 0.506115108 0.498201439 0.501798561 0.48381295 0.51618705 0.526258993 0.473741007 0.511870504 0.488129496 0.51618705 0.48381295 0.501798561 0.498201439 0.514028777 0.485971223 0.499640288 0.500359712 0.503956835 0.496043165 0.489568345 0.510431655 0.518345324 0.481654676 0.503956835 0.496043165 0.508273381 0.491726619 0.493884892 0.506115108 0.506115108 0.493884892 0.491726619 0.508273381 0.496043165 0.503956835 0.481654676 0.518345324 0.5219424459999999 0.478057554 0.5075539569999999 0.492446043 0.511870504 0.488129496 0.497482014 0.502517986 0.50971223 0.49028777 0.495323741 0.504676259 0.499640288 0.500359712 0.485251799 0.514748201 0.514028777 0.485971223 0.499640288 0.500359712 0.503956835 0.496043165 0.489568345 0.510431655 0.501798561 0.498201439 0.487410072 0.512589928 0.491726619 0.508273381 0.477338129 0.5226618709999999 0.534172662 0.465827338 0.519784173 0.480215827 0.524100719 0.475899281 0.50971223 0.49028777 0.5219424459999999 0.478057554 0.5075539569999999 0.492446043 0.511870504 0.488129496 0.497482014 0.502517986 0.526258993 0.473741007 0.511870504 0.488129496 0.51618705 0.48381295 0.501798561 0.498201439 0.514028777 0.485971223 0.499640288 0.500359712 0.503956835 0.496043165 0.489568345 0.510431655 0.529856115 0.470143885 0.515467626 0.484532374 0.519784173 0.480215827 0.505395683 0.494604317 0.517625899 0.482374101 0.50323741 0.49676259 0.5075539569999999 0.492446043 0.493165468 0.5068345319999999 0.5219424459999999 0.478057554 0.5075539569999999 0.492446043 0.511870504 0.488129496 0.497482014 0.502517986 0.50971223 0.49028777 0.495323741 0.504676259 0.499640288 0.500359712 0.485251799 0.514748201 0.527697842 0.472302158 0.513309353 0.486690647 0.517625899 0.482374101 0.50323741 0.49676259 0.515467626 0.484532374 0.501079137 0.498920863 0.505395683 0.494604317 0.491007194 0.508992806 0.519784173 0.480215827 0.505395683 0.494604317 0.50971223 0.49028777 0.495323741 0.504676259 0.5075539569999999 0.492446043 0.493165468 0.5068345319999999 0.497482014 0.502517986 0.483093525 0.516906475 0.523381295 0.476618705 0.508992806 0.491007194 0.513309353 0.486690647 0.498920863 0.501079137 0.511151079 0.488848921 0.49676259 0.50323741 0.501079137 0.498920863 0.486690647 0.513309353 0.515467626 0.484532374 0.501079137 0.498920863 0.505395683 0.494604317 0.491007194 0.508992806 0.50323741 0.49676259 0.488848921 0.511151079 0.493165468 0.5068345319999999 0.478776978 0.521223022 0.524100719 0.475899281 0.50971223 0.49028777 0.514028777 0.485971223 0.499640288 0.500359712 0.511870504 0.488129496 0.497482014 0.502517986 0.501798561 0.498201439 0.487410072 0.512589928 0.51618705 0.48381295 0.501798561 0.498201439 0.506115108 0.493884892 0.491726619 0.508273381 0.503956835 0.496043165 0.489568345 0.510431655 0.493884892 0.506115108 0.479496403 0.520503597 0.519784173 0.480215827 0.505395683 0.494604317 0.50971223 0.49028777 0.495323741 0.504676259 0.5075539569999999 0.492446043 0.493165468 0.5068345319999999 0.497482014 0.502517986 0.483093525 0.516906475 0.511870504 0.488129496 0.497482014 0.502517986 0.501798561 0.498201439 0.487410072 0.512589928 0.499640288 0.500359712 0.485251799 0.514748201 0.489568345 0.510431655 0.475179856 0.524820144 0.517625899 0.482374101 0.50323741 0.49676259 0.5075539569999999 0.492446043 0.493165468 0.5068345319999999 0.505395683 0.494604317 0.491007194 0.508992806 0.495323741 0.504676259 0.480935252 0.519064748 0.50971223 0.49028777 0.495323741 0.504676259 0.499640288 0.500359712 0.485251799 0.514748201 0.497482014 0.502517986 0.483093525 0.516906475 0.487410072 0.512589928 0.473021583 0.526978417 0.513309353 0.486690647 0.498920863 0.501079137 0.50323741 0.49676259 0.488848921 0.511151079 0.501079137 0.498920863 0.486690647 0.513309353 0.491007194 0.508992806 0.476618705 0.523381295 0.505395683 0.494604317 0.491007194 0.508992806 0.495323741 0.504676259 0.480935252 0.519064748 0.493165468 0.5068345319999999 0.478776978 0.521223022 0.483093525 0.516906475 0.468705036 0.531294964 0.531294964 0.468705036 0.516906475 0.483093525 0.521223022 0.478776978 0.5068345319999999 0.493165468 0.519064748 0.480935252 0.504676259 0.495323741 0.508992806 0.491007194 0.494604317 0.505395683 0.523381295 0.476618705 0.508992806 0.491007194 0.513309353 0.486690647 0.498920863 0.501079137 0.511151079 0.488848921 0.49676259 0.50323741 0.501079137 0.498920863 0.486690647 0.513309353 0.526978417 0.473021583 0.512589928 0.487410072 0.516906475 0.483093525 0.502517986 0.497482014 0.514748201 0.485251799 0.500359712 0.499640288 0.504676259 0.495323741 0.49028777 0.50971223 0.519064748 0.480935252 0.504676259 0.495323741 0.508992806 0.491007194 0.494604317 0.505395683 0.5068345319999999 0.493165468 0.492446043 0.5075539569999999 0.49676259 0.50323741 0.482374101 0.517625899 0.524820144 0.475179856 0.510431655 0.489568345 0.514748201 0.485251799 0.500359712 0.499640288 0.512589928 0.487410072 0.498201439 0.501798561 0.502517986 0.497482014 0.488129496 0.511870504 0.516906475 0.483093525 0.502517986 0.497482014 0.5068345319999999 0.493165468 0.492446043 0.5075539569999999 0.504676259 0.495323741 0.49028777 0.50971223 0.494604317 0.505395683 0.480215827 0.519784173 0.520503597 0.479496403 0.506115108 0.493884892 0.510431655 0.489568345 0.496043165 0.503956835 0.508273381 0.491726619 0.493884892 0.506115108 0.498201439 0.501798561 0.48381295 0.51618705 0.512589928 0.487410072 0.498201439 0.501798561 0.502517986 0.497482014 0.488129496 0.511870504 0.500359712 0.499640288 0.485971223 0.514028777 0.49028777 0.50971223 0.475899281 0.524100719 0.521223022 0.478776978 0.5068345319999999 0.493165468 0.511151079 0.488848921 0.49676259 0.50323741 0.508992806 0.491007194 0.494604317 0.505395683 0.498920863 0.501079137 0.484532374 0.515467626 0.513309353 0.486690647 0.498920863 0.501079137 0.50323741 0.49676259 0.488848921 0.511151079 0.501079137 0.498920863 0.486690647 0.513309353 0.491007194 0.508992806 0.476618705 0.523381295 0.516906475 0.483093525 0.502517986 0.497482014 0.5068345319999999 0.493165468 0.492446043 0.5075539569999999 0.504676259 0.495323741 0.49028777 0.50971223 0.494604317 0.505395683 0.480215827 0.519784173 0.508992806 0.491007194 0.494604317 0.505395683 0.498920863 0.501079137 0.484532374 0.515467626 0.49676259 0.50323741 0.482374101 0.517625899 0.486690647 0.513309353 0.472302158 0.527697842 0.514748201 0.485251799 0.500359712 0.499640288 0.504676259 0.495323741 0.49028777 0.50971223 0.502517986 0.497482014 0.488129496 0.511870504 0.492446043 0.5075539569999999 0.478057554 0.5219424459999999 0.5068345319999999 0.493165468 0.492446043 0.5075539569999999 0.49676259 0.50323741 0.482374101 0.517625899 0.494604317 0.505395683 0.480215827 0.519784173 0.484532374 0.515467626 0.470143885 0.529856115 0.510431655 0.489568345 0.496043165 0.503956835 0.500359712 0.499640288 0.485971223 0.514028777 0.498201439 0.501798561 0.48381295 0.51618705 0.488129496 0.511870504 0.473741007 0.526258993 0.502517986 0.497482014 0.488129496 0.511870504 0.492446043 0.5075539569999999 0.478057554 0.5219424459999999 0.49028777 0.50971223 0.475899281 0.524100719 0.480215827 0.519784173 0.465827338 0.534172662 0.548561151 0.451438849 0.534172662 0.465827338 0.538489209 0.461510791 0.524100719 0.475899281 0.536330935 0.463669065 0.5219424459999999 0.478057554 0.526258993 0.473741007 0.511870504 0.488129496 0.540647482 0.459352518 0.526258993 0.473741007 0.53057554 0.46942446 0.51618705 0.48381295 0.5284172660000001 0.471582734 0.514028777 0.485971223 0.518345324 0.481654676 0.503956835 0.496043165 0.544244604 0.455755396 0.529856115 0.470143885 0.534172662 0.465827338 0.519784173 0.480215827 0.532014388 0.467985612 0.517625899 0.482374101 0.5219424459999999 0.478057554 0.5075539569999999 0.492446043 0.536330935 0.463669065 0.5219424459999999 0.478057554 0.526258993 0.473741007 0.511870504 0.488129496 0.524100719 0.475899281 0.50971223 0.49028777 0.514028777 0.485971223 0.499640288 0.500359712 0.542086331 0.457913669 0.527697842 0.472302158 0.532014388 0.467985612 0.517625899 0.482374101 0.529856115 0.470143885 0.515467626 0.484532374 0.519784173 0.480215827 0.505395683 0.494604317 0.534172662 0.465827338 0.519784173 0.480215827 0.524100719 0.475899281 0.50971223 0.49028777 0.5219424459999999 0.478057554 0.5075539569999999 0.492446043 0.511870504 0.488129496 0.497482014 0.502517986 0.537769784 0.462230216 0.523381295 0.476618705 0.527697842 0.472302158 0.513309353 0.486690647 0.525539568 0.474460432 0.511151079 0.488848921 0.515467626 0.484532374 0.501079137 0.498920863 0.529856115 0.470143885 0.515467626 0.484532374 0.519784173 0.480215827 0.505395683 0.494604317 0.517625899 0.482374101 0.50323741 0.49676259 0.5075539569999999 0.492446043 0.493165468 0.5068345319999999 0.538489209 0.461510791 0.524100719 0.475899281 0.5284172660000001 0.471582734 0.514028777 0.485971223 0.526258993 0.473741007 0.511870504 0.488129496 0.51618705 0.48381295 0.501798561 0.498201439 0.53057554 0.46942446 0.51618705 0.48381295 0.520503597 0.479496403 0.506115108 0.493884892 0.518345324 0.481654676 0.503956835 0.496043165 0.508273381 0.491726619 0.493884892 0.506115108 0.534172662 0.465827338 0.519784173 0.480215827 0.524100719 0.475899281 0.50971223 0.49028777 0.5219424459999999 0.478057554 0.5075539569999999 0.492446043 0.511870504 0.488129496 0.497482014 0.502517986 0.526258993 0.473741007 0.511870504 0.488129496 0.51618705 0.48381295 0.501798561 0.498201439 0.514028777 0.485971223 0.499640288 0.500359712 0.503956835 0.496043165 0.489568345 0.510431655 0.532014388 0.467985612 0.517625899 0.482374101 0.5219424459999999 0.478057554 0.5075539569999999 0.492446043 0.519784173 0.480215827 0.505395683 0.494604317 0.50971223 0.49028777 0.495323741 0.504676259 0.524100719 0.475899281 0.50971223 0.49028777 0.514028777 0.485971223 0.499640288 0.500359712 0.511870504 0.488129496 0.497482014 0.502517986 0.501798561 0.498201439 0.487410072 0.512589928 0.527697842 0.472302158 0.513309353 0.486690647 0.517625899 0.482374101 0.50323741 0.49676259 0.515467626 0.484532374 0.501079137 0.498920863 0.505395683 0.494604317 0.491007194 0.508992806 0.519784173 0.480215827 0.505395683 0.494604317 0.50971223 0.49028777 0.495323741 0.504676259 0.5075539569999999 0.492446043 0.493165468 0.5068345319999999 0.497482014 0.502517986 0.483093525 0.516906475 0.545683453 0.454316547 0.531294964 0.468705036 0.535611511 0.464388489 0.521223022 0.478776978 0.533453237 0.466546763 0.519064748 0.480935252 0.523381295 0.476618705 0.508992806 0.491007194 0.537769784 0.462230216 0.523381295 0.476618705 0.527697842 0.472302158 0.513309353 0.486690647 0.525539568 0.474460432 0.511151079 0.488848921 0.515467626 0.484532374 0.501079137 0.498920863 0.541366906 0.458633094 0.526978417 0.473021583 0.531294964 0.468705036 0.516906475 0.483093525 0.529136691 0.470863309 0.514748201 0.485251799 0.519064748 0.480935252 0.504676259 0.495323741 0.533453237 0.466546763 0.519064748 0.480935252 0.523381295 0.476618705 0.508992806 0.491007194 0.521223022 0.478776978 0.5068345319999999 0.493165468 0.511151079 0.488848921 0.49676259 0.50323741 0.539208633 0.460791367 0.524820144 0.475179856 0.529136691 0.470863309 0.514748201 0.485251799 0.526978417 0.473021583 0.512589928 0.487410072 0.516906475 0.483093525 0.502517986 0.497482014 0.531294964 0.468705036 0.516906475 0.483093525 0.521223022 0.478776978 0.5068345319999999 0.493165468 0.519064748 0.480935252 0.504676259 0.495323741 0.508992806 0.491007194 0.494604317 0.505395683 0.534892086 0.465107914 0.520503597 0.479496403 0.524820144 0.475179856 0.510431655 0.489568345 0.5226618709999999 0.477338129 0.508273381 0.491726619 0.512589928 0.487410072 0.498201439 0.501798561 0.526978417 0.473021583 0.512589928 0.487410072 0.516906475 0.483093525 0.502517986 0.497482014 0.514748201 0.485251799 0.500359712 0.499640288 0.504676259 0.495323741 0.49028777 0.50971223 0.535611511 0.464388489 0.521223022 0.478776978 0.525539568 0.474460432 0.511151079 0.488848921 0.523381295 0.476618705 0.508992806 0.491007194 0.513309353 0.486690647 0.498920863 0.501079137 0.527697842 0.472302158 0.513309353 0.486690647 0.517625899 0.482374101 0.50323741 0.49676259 0.515467626 0.484532374 0.501079137 0.498920863 0.505395683 0.494604317 0.491007194 0.508992806 0.531294964 0.468705036 0.516906475 0.483093525 0.521223022 0.478776978 0.5068345319999999 0.493165468 0.519064748 0.480935252 0.504676259 0.495323741 0.508992806 0.491007194 0.494604317 0.505395683 0.523381295 0.476618705 0.508992806 0.491007194 0.513309353 0.486690647 0.498920863 0.501079137 0.511151079 0.488848921 0.49676259 0.50323741 0.501079137 0.498920863 0.486690647 0.513309353 0.529136691 0.470863309 0.514748201 0.485251799 0.519064748 0.480935252 0.504676259 0.495323741 0.516906475 0.483093525 0.502517986 0.497482014 0.5068345319999999 0.493165468 0.492446043 0.5075539569999999 0.521223022 0.478776978 0.5068345319999999 0.493165468 0.511151079 0.488848921 0.49676259 0.50323741 0.508992806 0.491007194 0.494604317 0.505395683 0.498920863 0.501079137 0.484532374 0.515467626 0.524820144 0.475179856 0.510431655 0.489568345 0.514748201 0.485251799 0.500359712 0.499640288 0.512589928 0.487410072 0.498201439 0.501798561 0.502517986 0.497482014 0.488129496 0.511870504 0.516906475 0.483093525 0.502517986 0.497482014 0.5068345319999999 0.493165468 0.492446043 0.5075539569999999 0.504676259 0.495323741 0.49028777 0.50971223 0.494604317 0.505395683 0.480215827 0.519784173 0.5370503599999999 0.46294964 0.5226618709999999 0.477338129 0.526978417 0.473021583 0.512589928 0.487410072 0.524820144 0.475179856 0.510431655 0.489568345 0.514748201 0.485251799 0.500359712 0.499640288 0.529136691 0.470863309 0.514748201 0.485251799 0.519064748 0.480935252 0.504676259 0.495323741 0.516906475 0.483093525 0.502517986 0.497482014 0.5068345319999999 0.493165468 0.492446043 0.5075539569999999 0.532733813 0.467266187 0.518345324 0.481654676 0.5226618709999999 0.477338129 0.508273381 0.491726619 0.520503597 0.479496403 0.506115108 0.493884892 0.510431655 0.489568345 0.496043165 0.503956835 0.524820144 0.475179856 0.510431655 0.489568345 0.514748201 0.485251799 0.500359712 0.499640288 0.512589928 0.487410072 0.498201439 0.501798561 0.502517986 0.497482014 0.488129496 0.511870504 0.53057554 0.46942446 0.51618705 0.48381295 0.520503597 0.479496403 0.506115108 0.493884892 0.518345324 0.481654676 0.503956835 0.496043165 0.508273381 0.491726619 0.493884892 0.506115108 0.5226618709999999 0.477338129 0.508273381 0.491726619 0.512589928 0.487410072 0.498201439 0.501798561 0.510431655 0.489568345 0.496043165 0.503956835 0.500359712 0.499640288 0.485971223 0.514028777 0.526258993 0.473741007 0.511870504 0.488129496 0.51618705 0.48381295 0.501798561 0.498201439 0.514028777 0.485971223 0.499640288 0.500359712 0.503956835 0.496043165 0.489568345 0.510431655 0.518345324 0.481654676 0.503956835 0.496043165 0.508273381 0.491726619 0.493884892 0.506115108 0.506115108 0.493884892 0.491726619 0.508273381 0.496043165 0.503956835 0.481654676 0.518345324 0.526978417 0.473021583 0.512589928 0.487410072 0.516906475 0.483093525 0.502517986 0.497482014 0.514748201 0.485251799 0.500359712 0.499640288 0.504676259 0.495323741 0.49028777 0.50971223 0.519064748 0.480935252 0.504676259 0.495323741 0.508992806 0.491007194 0.494604317 0.505395683 0.5068345319999999 0.493165468 0.492446043 0.5075539569999999 0.49676259 0.50323741 0.482374101 0.517625899 0.5226618709999999 0.477338129 0.508273381 0.491726619 0.512589928 0.487410072 0.498201439 0.501798561 0.510431655 0.489568345 0.496043165 0.503956835 0.500359712 0.499640288 0.485971223 0.514028777 0.514748201 0.485251799 0.500359712 0.499640288 0.504676259 0.495323741 0.49028777 0.50971223 0.502517986 0.497482014 0.488129496 0.511870504 0.492446043 0.5075539569999999 0.478057554 0.5219424459999999 0.520503597 0.479496403 0.506115108 0.493884892 0.510431655 0.489568345 0.496043165 0.503956835 0.508273381 0.491726619 0.493884892 0.506115108 0.498201439 0.501798561 0.48381295 0.51618705 0.512589928 0.487410072 0.498201439 0.501798561 0.502517986 0.497482014 0.488129496 0.511870504 0.500359712 0.499640288 0.485971223 0.514028777 0.49028777 0.50971223 0.475899281 0.524100719 0.51618705 0.48381295 0.501798561 0.498201439 0.506115108 0.493884892 0.491726619 0.508273381 0.503956835 0.496043165 0.489568345 0.510431655 0.493884892 0.506115108 0.479496403 0.520503597 0.508273381 0.491726619 0.493884892 0.506115108 0.498201439 0.501798561 0.48381295 0.51618705 0.496043165 0.503956835 0.481654676 0.518345324 0.485971223 0.514028777 0.471582734 0.5284172660000001 0.534172662 0.465827338 0.519784173 0.480215827 0.524100719 0.475899281 0.50971223 0.49028777 0.5219424459999999 0.478057554 0.5075539569999999 0.492446043 0.511870504 0.488129496 0.497482014 0.502517986 0.526258993 0.473741007 0.511870504 0.488129496 0.51618705 0.48381295 0.501798561 0.498201439 0.514028777 0.485971223 0.499640288 0.500359712 0.503956835 0.496043165 0.489568345 0.510431655 0.529856115 0.470143885 0.515467626 0.484532374 0.519784173 0.480215827 0.505395683 0.494604317 0.517625899 0.482374101 0.50323741 0.49676259 0.5075539569999999 0.492446043 0.493165468 0.5068345319999999 0.5219424459999999 0.478057554 0.5075539569999999 0.492446043 0.511870504 0.488129496 0.497482014 0.502517986 0.50971223 0.49028777 0.495323741 0.504676259 0.499640288 0.500359712 0.485251799 0.514748201 0.527697842 0.472302158 0.513309353 0.486690647 0.517625899 0.482374101 0.50323741 0.49676259 0.515467626 0.484532374 0.501079137 0.498920863 0.505395683 0.494604317 0.491007194 0.508992806 0.519784173 0.480215827 0.505395683 0.494604317 0.50971223 0.49028777 0.495323741 0.504676259 0.5075539569999999 0.492446043 0.493165468 0.5068345319999999 0.497482014 0.502517986 0.483093525 0.516906475 0.523381295 0.476618705 0.508992806 0.491007194 0.513309353 0.486690647 0.498920863 0.501079137 0.511151079 0.488848921 0.49676259 0.50323741 0.501079137 0.498920863 0.486690647 0.513309353 0.515467626 0.484532374 0.501079137 0.498920863 0.505395683 0.494604317 0.491007194 0.508992806 0.50323741 0.49676259 0.488848921 0.511151079 0.493165468 0.5068345319999999 0.478776978 0.521223022 0.524100719 0.475899281 0.50971223 0.49028777 0.514028777 0.485971223 0.499640288 0.500359712 0.511870504 0.488129496 0.497482014 0.502517986 0.501798561 0.498201439 0.487410072 0.512589928 0.51618705 0.48381295 0.501798561 0.498201439 0.506115108 0.493884892 0.491726619 0.508273381 0.503956835 0.496043165 0.489568345 0.510431655 0.493884892 0.506115108 0.479496403 0.520503597 0.519784173 0.480215827 0.505395683 0.494604317 0.50971223 0.49028777 0.495323741 0.504676259 0.5075539569999999 0.492446043 0.493165468 0.5068345319999999 0.497482014 0.502517986 0.483093525 0.516906475 0.511870504 0.488129496 0.497482014 0.502517986 0.501798561 0.498201439 0.487410072 0.512589928 0.499640288 0.500359712 0.485251799 0.514748201 0.489568345 0.510431655 0.475179856 0.524820144 0.517625899 0.482374101 0.50323741 0.49676259 0.5075539569999999 0.492446043 0.493165468 0.5068345319999999 0.505395683 0.494604317 0.491007194 0.508992806 0.495323741 0.504676259 0.480935252 0.519064748 0.50971223 0.49028777 0.495323741 0.504676259 0.499640288 0.500359712 0.485251799 0.514748201 0.497482014 0.502517986 0.483093525 0.516906475 0.487410072 0.512589928 0.473021583 0.526978417 0.513309353 0.486690647 0.498920863 0.501079137 0.50323741 0.49676259 0.488848921 0.511151079 0.501079137 0.498920863 0.486690647 0.513309353 0.491007194 0.508992806 0.476618705 0.523381295 0.505395683 0.494604317 0.491007194 0.508992806 0.495323741 0.504676259 0.480935252 0.519064748 0.493165468 0.5068345319999999 0.478776978 0.521223022 0.483093525 0.516906475 0.468705036 0.531294964 0.545683453 0.454316547 0.531294964 0.468705036 0.535611511 0.464388489 0.521223022 0.478776978 0.533453237 0.466546763 0.519064748 0.480935252 0.523381295 0.476618705 0.508992806 0.491007194 0.537769784 0.462230216 0.523381295 0.476618705 0.527697842 0.472302158 0.513309353 0.486690647 0.525539568 0.474460432 0.511151079 0.488848921 0.515467626 0.484532374 0.501079137 0.498920863 0.541366906 0.458633094 0.526978417 0.473021583 0.531294964 0.468705036 0.516906475 0.483093525 0.529136691 0.470863309 0.514748201 0.485251799 0.519064748 0.480935252 0.504676259 0.495323741 0.533453237 0.466546763 0.519064748 0.480935252 0.523381295 0.476618705 0.508992806 0.491007194 0.521223022 0.478776978 0.5068345319999999 0.493165468 0.511151079 0.488848921 0.49676259 0.50323741 0.539208633 0.460791367 0.524820144 0.475179856 0.529136691 0.470863309 0.514748201 0.485251799 0.526978417 0.473021583 0.512589928 0.487410072 0.516906475 0.483093525 0.502517986 0.497482014 0.531294964 0.468705036 0.516906475 0.483093525 0.521223022 0.478776978 0.5068345319999999 0.493165468 0.519064748 0.480935252 0.504676259 0.495323741 0.508992806 0.491007194 0.494604317 0.505395683 0.534892086 0.465107914 0.520503597 0.479496403 0.524820144 0.475179856 0.510431655 0.489568345 0.5226618709999999 0.477338129 0.508273381 0.491726619 0.512589928 0.487410072 0.498201439 0.501798561 0.526978417 0.473021583 0.512589928 0.487410072 0.516906475 0.483093525 0.502517986 0.497482014 0.514748201 0.485251799 0.500359712 0.499640288 0.504676259 0.495323741 0.49028777 0.50971223 0.535611511 0.464388489 0.521223022 0.478776978 0.525539568 0.474460432 0.511151079 0.488848921 0.523381295 0.476618705 0.508992806 0.491007194 0.513309353 0.486690647 0.498920863 0.501079137 0.527697842 0.472302158 0.513309353 0.486690647 0.517625899 0.482374101 0.50323741 0.49676259 0.515467626 0.484532374 0.501079137 0.498920863 0.505395683 0.494604317 0.491007194 0.508992806 0.531294964 0.468705036 0.516906475 0.483093525 0.521223022 0.478776978 0.5068345319999999 0.493165468 0.519064748 0.480935252 0.504676259 0.495323741 0.508992806 0.491007194 0.494604317 0.505395683 0.523381295 0.476618705 0.508992806 0.491007194 0.513309353 0.486690647 0.498920863 0.501079137 0.511151079 0.488848921 0.49676259 0.50323741 0.501079137 0.498920863 0.486690647 0.513309353 0.529136691 0.470863309 0.514748201 0.485251799 0.519064748 0.480935252 0.504676259 0.495323741 0.516906475 0.483093525 0.502517986 0.497482014 0.5068345319999999 0.493165468 0.492446043 0.5075539569999999 0.521223022 0.478776978 0.5068345319999999 0.493165468 0.511151079 0.488848921 0.49676259 0.50323741 0.508992806 0.491007194 0.494604317 0.505395683 0.498920863 0.501079137 0.484532374 0.515467626 0.524820144 0.475179856 0.510431655 0.489568345 0.514748201 0.485251799 0.500359712 0.499640288 0.512589928 0.487410072 0.498201439 0.501798561 0.502517986 0.497482014 0.488129496 0.511870504 0.516906475 0.483093525 0.502517986 0.497482014 0.5068345319999999 0.493165468 0.492446043 0.5075539569999999 0.504676259 0.495323741 0.49028777 0.50971223 0.494604317 0.505395683 0.480215827 0.519784173 0.5428057549999999 0.457194245 0.5284172660000001 0.471582734 0.532733813 0.467266187 0.518345324 0.481654676 0.53057554 0.46942446 0.51618705 0.48381295 0.520503597 0.479496403 0.506115108 0.493884892 0.534892086 0.465107914 0.520503597 0.479496403 0.524820144 0.475179856 0.510431655 0.489568345 0.5226618709999999 0.477338129 0.508273381 0.491726619 0.512589928 0.487410072 0.498201439 0.501798561 0.538489209 0.461510791 0.524100719 0.475899281 0.5284172660000001 0.471582734 0.514028777 0.485971223 0.526258993 0.473741007 0.511870504 0.488129496 0.51618705 0.48381295 0.501798561 0.498201439 0.53057554 0.46942446 0.51618705 0.48381295 0.520503597 0.479496403 0.506115108 0.493884892 0.518345324 0.481654676 0.503956835 0.496043165 0.508273381 0.491726619 0.493884892 0.506115108 0.536330935 0.463669065 0.5219424459999999 0.478057554 0.526258993 0.473741007 0.511870504 0.488129496 0.524100719 0.475899281 0.50971223 0.49028777 0.514028777 0.485971223 0.499640288 0.500359712 0.5284172660000001 0.471582734 0.514028777 0.485971223 0.518345324 0.481654676 0.503956835 0.496043165 0.51618705 0.48381295 0.501798561 0.498201439 0.506115108 0.493884892 0.491726619 0.508273381 0.532014388 0.467985612 0.517625899 0.482374101 0.5219424459999999 0.478057554 0.5075539569999999 0.492446043 0.519784173 0.480215827 0.505395683 0.494604317 0.50971223 0.49028777 0.495323741 0.504676259 0.524100719 0.475899281 0.50971223 0.49028777 0.514028777 0.485971223 0.499640288 0.500359712 0.511870504 0.488129496 0.497482014 0.502517986 0.501798561 0.498201439 0.487410072 0.512589928 0.532733813 0.467266187 0.518345324 0.481654676 0.5226618709999999 0.477338129 0.508273381 0.491726619 0.520503597 0.479496403 0.506115108 0.493884892 0.510431655 0.489568345 0.496043165 0.503956835 0.524820144 0.475179856 0.510431655 0.489568345 0.514748201 0.485251799 0.500359712 0.499640288 0.512589928 0.487410072 0.498201439 0.501798561 0.502517986 0.497482014 0.488129496 0.511870504 0.5284172660000001 0.471582734 0.514028777 0.485971223 0.518345324 0.481654676 0.503956835 0.496043165 0.51618705 0.48381295 0.501798561 0.498201439 0.506115108 0.493884892 0.491726619 0.508273381 0.520503597 0.479496403 0.506115108 0.493884892 0.510431655 0.489568345 0.496043165 0.503956835 0.508273381 0.491726619 0.493884892 0.506115108 0.498201439 0.501798561 0.48381295 0.51618705 0.526258993 0.473741007 0.511870504 0.488129496 0.51618705 0.48381295 0.501798561 0.498201439 0.514028777 0.485971223 0.499640288 0.500359712 0.503956835 0.496043165 0.489568345 0.510431655 0.518345324 0.481654676 0.503956835 0.496043165 0.508273381 0.491726619 0.493884892 0.506115108 0.506115108 0.493884892 0.491726619 0.508273381 0.496043165 0.503956835 0.481654676 0.518345324 0.5219424459999999 0.478057554 0.5075539569999999 0.492446043 0.511870504 0.488129496 0.497482014 0.502517986 0.50971223 0.49028777 0.495323741 0.504676259 0.499640288 0.500359712 0.485251799 0.514748201 0.514028777 0.485971223 0.499640288 0.500359712 0.503956835 0.496043165 0.489568345 0.510431655 0.501798561 0.498201439 0.487410072 0.512589928 0.491726619 0.508273381 0.477338129 0.5226618709999999 0.534172662 0.465827338 0.519784173 0.480215827 0.524100719 0.475899281 0.50971223 0.49028777 0.5219424459999999 0.478057554 0.5075539569999999 0.492446043 0.511870504 0.488129496 0.497482014 0.502517986 0.526258993 0.473741007 0.511870504 0.488129496 0.51618705 0.48381295 0.501798561 0.498201439 0.514028777 0.485971223 0.499640288 0.500359712 0.503956835 0.496043165 0.489568345 0.510431655 0.529856115 0.470143885 0.515467626 0.484532374 0.519784173 0.480215827 0.505395683 0.494604317 0.517625899 0.482374101 0.50323741 0.49676259 0.5075539569999999 0.492446043 0.493165468 0.5068345319999999 0.5219424459999999 0.478057554 0.5075539569999999 0.492446043 0.511870504 0.488129496 0.497482014 0.502517986 0.50971223 0.49028777 0.495323741 0.504676259 0.499640288 0.500359712 0.485251799 0.514748201 0.527697842 0.472302158 0.513309353 0.486690647 0.517625899 0.482374101 0.50323741 0.49676259 0.515467626 0.484532374 0.501079137 0.498920863 0.505395683 0.494604317 0.491007194 0.508992806 0.519784173 0.480215827 0.505395683 0.494604317 0.50971223 0.49028777 0.495323741 0.504676259 0.5075539569999999 0.492446043 0.493165468 0.5068345319999999 0.497482014 0.502517986 0.483093525 0.516906475 0.523381295 0.476618705 0.508992806 0.491007194 0.513309353 0.486690647 0.498920863 0.501079137 0.511151079 0.488848921 0.49676259 0.50323741 0.501079137 0.498920863 0.486690647 0.513309353 0.515467626 0.484532374 0.501079137 0.498920863 0.505395683 0.494604317 0.491007194 0.508992806 0.50323741 0.49676259 0.488848921 0.511151079 0.493165468 0.5068345319999999 0.478776978 0.521223022 0.524100719 0.475899281 0.50971223 0.49028777 0.514028777 0.485971223 0.499640288 0.500359712 0.511870504 0.488129496 0.497482014 0.502517986 0.501798561 0.498201439 0.487410072 0.512589928 0.51618705 0.48381295 0.501798561 0.498201439 0.506115108 0.493884892 0.491726619 0.508273381 0.503956835 0.496043165 0.489568345 0.510431655 0.493884892 0.506115108 0.479496403 0.520503597 0.519784173 0.480215827 0.505395683 0.494604317 0.50971223 0.49028777 0.495323741 0.504676259 0.5075539569999999 0.492446043 0.493165468 0.5068345319999999 0.497482014 0.502517986 0.483093525 0.516906475 0.511870504 0.488129496 0.497482014 0.502517986 0.501798561 0.498201439 0.487410072 0.512589928 0.499640288 0.500359712 0.485251799 0.514748201 0.489568345 0.510431655 0.475179856 0.524820144 0.517625899 0.482374101 0.50323741 0.49676259 0.5075539569999999 0.492446043 0.493165468 0.5068345319999999 0.505395683 0.494604317 0.491007194 0.508992806 0.495323741 0.504676259 0.480935252 0.519064748 0.50971223 0.49028777 0.495323741 0.504676259 0.499640288 0.500359712 0.485251799 0.514748201 0.497482014 0.502517986 0.483093525 0.516906475 0.487410072 0.512589928 0.473021583 0.526978417 0.513309353 0.486690647 0.498920863 0.501079137 0.50323741 0.49676259 0.488848921 0.511151079 0.501079137 0.498920863 0.486690647 0.513309353 0.491007194 0.508992806 0.476618705 0.523381295 0.505395683 0.494604317 0.491007194 0.508992806 0.495323741 0.504676259 0.480935252 0.519064748 0.493165468 0.5068345319999999 0.478776978 0.521223022 0.483093525 0.516906475 0.468705036 0.531294964 0.531294964 0.468705036 0.516906475 0.483093525 0.521223022 0.478776978 0.5068345319999999 0.493165468 0.519064748 0.480935252 0.504676259 0.495323741 0.508992806 0.491007194 0.494604317 0.505395683 0.523381295 0.476618705 0.508992806 0.491007194 0.513309353 0.486690647 0.498920863 0.501079137 0.511151079 0.488848921 0.49676259 0.50323741 0.501079137 0.498920863 0.486690647 0.513309353 0.526978417 0.473021583 0.512589928 0.487410072 0.516906475 0.483093525 0.502517986 0.497482014 0.514748201 0.485251799 0.500359712 0.499640288 0.504676259 0.495323741 0.49028777 0.50971223 0.519064748 0.480935252 0.504676259 0.495323741 0.508992806 0.491007194 0.494604317 0.505395683 0.5068345319999999 0.493165468 0.492446043 0.5075539569999999 0.49676259 0.50323741 0.482374101 0.517625899 0.524820144 0.475179856 0.510431655 0.489568345 0.514748201 0.485251799 0.500359712 0.499640288 0.512589928 0.487410072 0.498201439 0.501798561 0.502517986 0.497482014 0.488129496 0.511870504 0.516906475 0.483093525 0.502517986 0.497482014 0.5068345319999999 0.493165468 0.492446043 0.5075539569999999 0.504676259 0.495323741 0.49028777 0.50971223 0.494604317 0.505395683 0.480215827 0.519784173 0.520503597 0.479496403 0.506115108 0.493884892 0.510431655 0.489568345 0.496043165 0.503956835 0.508273381 0.491726619 0.493884892 0.506115108 0.498201439 0.501798561 0.48381295 0.51618705 0.512589928 0.487410072 0.498201439 0.501798561 0.502517986 0.497482014 0.488129496 0.511870504 0.500359712 0.499640288 0.485971223 0.514028777 0.49028777 0.50971223 0.475899281 0.524100719 0.521223022 0.478776978 0.5068345319999999 0.493165468 0.511151079 0.488848921 0.49676259 0.50323741 0.508992806 0.491007194 0.494604317 0.505395683 0.498920863 0.501079137 0.484532374 0.515467626 0.513309353 0.486690647 0.498920863 0.501079137 0.50323741 0.49676259 0.488848921 0.511151079 0.501079137 0.498920863 0.486690647 0.513309353 0.491007194 0.508992806 0.476618705 0.523381295 0.516906475 0.483093525 0.502517986 0.497482014 0.5068345319999999 0.493165468 0.492446043 0.5075539569999999 0.504676259 0.495323741 0.49028777 0.50971223 0.494604317 0.505395683 0.480215827 0.519784173 0.508992806 0.491007194 0.494604317 0.505395683 0.498920863 0.501079137 0.484532374 0.515467626 0.49676259 0.50323741 0.482374101 0.517625899 0.486690647 0.513309353 0.472302158 0.527697842 0.514748201 0.485251799 0.500359712 0.499640288 0.504676259 0.495323741 0.49028777 0.50971223 0.502517986 0.497482014 0.488129496 0.511870504 0.492446043 0.5075539569999999 0.478057554 0.5219424459999999 0.5068345319999999 0.493165468 0.492446043 0.5075539569999999 0.49676259 0.50323741 0.482374101 0.517625899 0.494604317 0.505395683 0.480215827 0.519784173 0.484532374 0.515467626 0.470143885 0.529856115 0.510431655 0.489568345 0.496043165 0.503956835 0.500359712 0.499640288 0.485971223 0.514028777 0.498201439 0.501798561 0.48381295 0.51618705 0.488129496 0.511870504 0.473741007 0.526258993 0.502517986 0.497482014 0.488129496 0.511870504 0.492446043 0.5075539569999999 0.478057554 0.5219424459999999 0.49028777 0.50971223 0.475899281 0.524100719 0.480215827 0.519784173 0.465827338 0.534172662 0.547122302 0.452877698 0.532733813 0.467266187 0.5370503599999999 0.46294964 0.5226618709999999 0.477338129 0.534892086 0.465107914 0.520503597 0.479496403 0.524820144 0.475179856 0.510431655 0.489568345 0.539208633 0.460791367 0.524820144 0.475179856 0.529136691 0.470863309 0.514748201 0.485251799 0.526978417 0.473021583 0.512589928 0.487410072 0.516906475 0.483093525 0.502517986 0.497482014 0.5428057549999999 0.457194245 0.5284172660000001 0.471582734 0.532733813 0.467266187 0.518345324 0.481654676 0.53057554 0.46942446 0.51618705 0.48381295 0.520503597 0.479496403 0.506115108 0.493884892 0.534892086 0.465107914 0.520503597 0.479496403 0.524820144 0.475179856 0.510431655 0.489568345 0.5226618709999999 0.477338129 0.508273381 0.491726619 0.512589928 0.487410072 0.498201439 0.501798561 0.540647482 0.459352518 0.526258993 0.473741007 0.53057554 0.46942446 0.51618705 0.48381295 0.5284172660000001 0.471582734 0.514028777 0.485971223 0.518345324 0.481654676 0.503956835 0.496043165 0.532733813 0.467266187 0.518345324 0.481654676 0.5226618709999999 0.477338129 0.508273381 0.491726619 0.520503597 0.479496403 0.506115108 0.493884892 0.510431655 0.489568345 0.496043165 0.503956835 0.536330935 0.463669065 0.5219424459999999 0.478057554 0.526258993 0.473741007 0.511870504 0.488129496 0.524100719 0.475899281 0.50971223 0.49028777 0.514028777 0.485971223 0.499640288 0.500359712 0.5284172660000001 0.471582734 0.514028777 0.485971223 0.518345324 0.481654676 0.503956835 0.496043165 0.51618705 0.48381295 0.501798561 0.498201439 0.506115108 0.493884892 0.491726619 0.508273381 0.5370503599999999 0.46294964 0.5226618709999999 0.477338129 0.526978417 0.473021583 0.512589928 0.487410072 0.524820144 0.475179856 0.510431655 0.489568345 0.514748201 0.485251799 0.500359712 0.499640288 0.529136691 0.470863309 0.514748201 0.485251799 0.519064748 0.480935252 0.504676259 0.495323741 0.516906475 0.483093525 0.502517986 0.497482014 0.5068345319999999 0.493165468 0.492446043 0.5075539569999999 0.532733813 0.467266187 0.518345324 0.481654676 0.5226618709999999 0.477338129 0.508273381 0.491726619 0.520503597 0.479496403 0.506115108 0.493884892 0.510431655 0.489568345 0.496043165 0.503956835 0.524820144 0.475179856 0.510431655 0.489568345 0.514748201 0.485251799 0.500359712 0.499640288 0.512589928 0.487410072 0.498201439 0.501798561 0.502517986 0.497482014 0.488129496 0.511870504 0.53057554 0.46942446 0.51618705 0.48381295 0.520503597 0.479496403 0.506115108 0.493884892 0.518345324 0.481654676 0.503956835 0.496043165 0.508273381 0.491726619 0.493884892 0.506115108 0.5226618709999999 0.477338129 0.508273381 0.491726619 0.512589928 0.487410072 0.498201439 0.501798561 0.510431655 0.489568345 0.496043165 0.503956835 0.500359712 0.499640288 0.485971223 0.514028777 0.526258993 0.473741007 0.511870504 0.488129496 0.51618705 0.48381295 0.501798561 0.498201439 0.514028777 0.485971223 0.499640288 0.500359712 0.503956835 0.496043165 0.489568345 0.510431655 0.518345324 0.481654676 0.503956835 0.496043165 0.508273381 0.491726619 0.493884892 0.506115108 0.506115108 0.493884892 0.491726619 0.508273381 0.496043165 0.503956835 0.481654676 0.518345324 0.544244604 0.455755396 0.529856115 0.470143885 0.534172662 0.465827338 0.519784173 0.480215827 0.532014388 0.467985612 0.517625899 0.482374101 0.5219424459999999 0.478057554 0.5075539569999999 0.492446043 0.536330935 0.463669065 0.5219424459999999 0.478057554 0.526258993 0.473741007 0.511870504 0.488129496 0.524100719 0.475899281 0.50971223 0.49028777 0.514028777 0.485971223 0.499640288 0.500359712 0.539928058 0.460071942 0.525539568 0.474460432 0.529856115 0.470143885 0.515467626 0.484532374 0.527697842 0.472302158 0.513309353 0.486690647 0.517625899 0.482374101 0.50323741 0.49676259 0.532014388 0.467985612 0.517625899 0.482374101 0.5219424459999999 0.478057554 0.5075539569999999 0.492446043 0.519784173 0.480215827 0.505395683 0.494604317 0.50971223 0.49028777 0.495323741 0.504676259 0.537769784 0.462230216 0.523381295 0.476618705 0.527697842 0.472302158 0.513309353 0.486690647 0.525539568 0.474460432 0.511151079 0.488848921 0.515467626 0.484532374 0.501079137 0.498920863 0.529856115 0.470143885 0.515467626 0.484532374 0.519784173 0.480215827 0.505395683 0.494604317 0.517625899 0.482374101 0.50323741 0.49676259 0.5075539569999999 0.492446043 0.493165468 0.5068345319999999 0.533453237 0.466546763 0.519064748 0.480935252 0.523381295 0.476618705 0.508992806 0.491007194 0.521223022 0.478776978 0.5068345319999999 0.493165468 0.511151079 0.488848921 0.49676259 0.50323741 0.525539568 0.474460432 0.511151079 0.488848921 0.515467626 0.484532374 0.501079137 0.498920863 0.513309353 0.486690647 0.498920863 0.501079137 0.50323741 0.49676259 0.488848921 0.511151079 0.534172662 0.465827338 0.519784173 0.480215827 0.524100719 0.475899281 0.50971223 0.49028777 0.5219424459999999 0.478057554 0.5075539569999999 0.492446043 0.511870504 0.488129496 0.497482014 0.502517986 0.526258993 0.473741007 0.511870504 0.488129496 0.51618705 0.48381295 0.501798561 0.498201439 0.514028777 0.485971223 0.499640288 0.500359712 0.503956835 0.496043165 0.489568345 0.510431655 0.529856115 0.470143885 0.515467626 0.484532374 0.519784173 0.480215827 0.505395683 0.494604317 0.517625899 0.482374101 0.50323741 0.49676259 0.5075539569999999 0.492446043 0.493165468 0.5068345319999999 0.5219424459999999 0.478057554 0.5075539569999999 0.492446043 0.511870504 0.488129496 0.497482014 0.502517986 0.50971223 0.49028777 0.495323741 0.504676259 0.499640288 0.500359712 0.485251799 0.514748201 0.527697842 0.472302158 0.513309353 0.486690647 0.517625899 0.482374101 0.50323741 0.49676259 0.515467626 0.484532374 0.501079137 0.498920863 0.505395683 0.494604317 0.491007194 0.508992806 0.519784173 0.480215827 0.505395683 0.494604317 0.50971223 0.49028777 0.495323741 0.504676259 0.5075539569999999 0.492446043 0.493165468 0.5068345319999999 0.497482014 0.502517986 0.483093525 0.516906475 0.523381295 0.476618705 0.508992806 0.491007194 0.513309353 0.486690647 0.498920863 0.501079137 0.511151079 0.488848921 0.49676259 0.50323741 0.501079137 0.498920863 0.486690647 0.513309353 0.515467626 0.484532374 0.501079137 0.498920863 0.505395683 0.494604317 0.491007194 0.508992806 0.50323741 0.49676259 0.488848921 0.511151079 0.493165468 0.5068345319999999 0.478776978 0.521223022 0.535611511 0.464388489 0.521223022 0.478776978 0.525539568 0.474460432 0.511151079 0.488848921 0.523381295 0.476618705 0.508992806 0.491007194 0.513309353 0.486690647 0.498920863 0.501079137 0.527697842 0.472302158 0.513309353 0.486690647 0.517625899 0.482374101 0.50323741 0.49676259 0.515467626 0.484532374 0.501079137 0.498920863 0.505395683 0.494604317 0.491007194 0.508992806 0.531294964 0.468705036 0.516906475 0.483093525 0.521223022 0.478776978 0.5068345319999999 0.493165468 0.519064748 0.480935252 0.504676259 0.495323741 0.508992806 0.491007194 0.494604317 0.505395683 0.523381295 0.476618705 0.508992806 0.491007194 0.513309353 0.486690647 0.498920863 0.501079137 0.511151079 0.488848921 0.49676259 0.50323741 0.501079137 0.498920863 0.486690647 0.513309353 0.529136691 0.470863309 0.514748201 0.485251799 0.519064748 0.480935252 0.504676259 0.495323741 0.516906475 0.483093525 0.502517986 0.497482014 0.5068345319999999 0.493165468 0.492446043 0.5075539569999999 0.521223022 0.478776978 0.5068345319999999 0.493165468 0.511151079 0.488848921 0.49676259 0.50323741 0.508992806 0.491007194 0.494604317 0.505395683 0.498920863 0.501079137 0.484532374 0.515467626 0.524820144 0.475179856 0.510431655 0.489568345 0.514748201 0.485251799 0.500359712 0.499640288 0.512589928 0.487410072 0.498201439 0.501798561 0.502517986 0.497482014 0.488129496 0.511870504 0.516906475 0.483093525 0.502517986 0.497482014 0.5068345319999999 0.493165468 0.492446043 0.5075539569999999 0.504676259 0.495323741 0.49028777 0.50971223 0.494604317 0.505395683 0.480215827 0.519784173 0.525539568 0.474460432 0.511151079 0.488848921 0.515467626 0.484532374 0.501079137 0.498920863 0.513309353 0.486690647 0.498920863 0.501079137 0.50323741 0.49676259 0.488848921 0.511151079 0.517625899 0.482374101 0.50323741 0.49676259 0.5075539569999999 0.492446043 0.493165468 0.5068345319999999 0.505395683 0.494604317 0.491007194 0.508992806 0.495323741 0.504676259 0.480935252 0.519064748 0.521223022 0.478776978 0.5068345319999999 0.493165468 0.511151079 0.488848921 0.49676259 0.50323741 0.508992806 0.491007194 0.494604317 0.505395683 0.498920863 0.501079137 0.484532374 0.515467626 0.513309353 0.486690647 0.498920863 0.501079137 0.50323741 0.49676259 0.488848921 0.511151079 0.501079137 0.498920863 0.486690647 0.513309353 0.491007194 0.508992806 0.476618705 0.523381295 0.519064748 0.480935252 0.504676259 0.495323741 0.508992806 0.491007194 0.494604317 0.505395683 0.5068345319999999 0.493165468 0.492446043 0.5075539569999999 0.49676259 0.50323741 0.482374101 0.517625899 0.511151079 0.488848921 0.49676259 0.50323741 0.501079137 0.498920863 0.486690647 0.513309353 0.498920863 0.501079137 0.484532374 0.515467626 0.488848921 0.511151079 0.474460432 0.525539568 0.514748201 0.485251799 0.500359712 0.499640288 0.504676259 0.495323741 0.49028777 0.50971223 0.502517986 0.497482014 0.488129496 0.511870504 0.492446043 0.5075539569999999 0.478057554 0.5219424459999999 0.5068345319999999 0.493165468 0.492446043 0.5075539569999999 0.49676259 0.50323741 0.482374101 0.517625899 0.494604317 0.505395683 0.480215827 0.519784173 0.484532374 0.515467626 0.470143885 0.529856115 0.532733813 0.467266187 0.518345324 0.481654676 0.5226618709999999 0.477338129 0.508273381 0.491726619 0.520503597 0.479496403 0.506115108 0.493884892 0.510431655 0.489568345 0.496043165 0.503956835 0.524820144 0.475179856 0.510431655 0.489568345 0.514748201 0.485251799 0.500359712 0.499640288 0.512589928 0.487410072 0.498201439 0.501798561 0.502517986 0.497482014 0.488129496 0.511870504 0.5284172660000001 0.471582734 0.514028777 0.485971223 0.518345324 0.481654676 0.503956835 0.496043165 0.51618705 0.48381295 0.501798561 0.498201439 0.506115108 0.493884892 0.491726619 0.508273381 0.520503597 0.479496403 0.506115108 0.493884892 0.510431655 0.489568345 0.496043165 0.503956835 0.508273381 0.491726619 0.493884892 0.506115108 0.498201439 0.501798561 0.48381295 0.51618705 0.526258993 0.473741007 0.511870504 0.488129496 0.51618705 0.48381295 0.501798561 0.498201439 0.514028777 0.485971223 0.499640288 0.500359712 0.503956835 0.496043165 0.489568345 0.510431655 0.518345324 0.481654676 0.503956835 0.496043165 0.508273381 0.491726619 0.493884892 0.506115108 0.506115108 0.493884892 0.491726619 0.508273381 0.496043165 0.503956835 0.481654676 0.518345324 0.5219424459999999 0.478057554 0.5075539569999999 0.492446043 0.511870504 0.488129496 0.497482014 0.502517986 0.50971223 0.49028777 0.495323741 0.504676259 0.499640288 0.500359712 0.485251799 0.514748201 0.514028777 0.485971223 0.499640288 0.500359712 0.503956835 0.496043165 0.489568345 0.510431655 0.501798561 0.498201439 0.487410072 0.512589928 0.491726619 0.508273381 0.477338129 0.5226618709999999 0.5226618709999999 0.477338129 0.508273381 0.491726619 0.512589928 0.487410072 0.498201439 0.501798561 0.510431655 0.489568345 0.496043165 0.503956835 0.500359712 0.499640288 0.485971223 0.514028777 0.514748201 0.485251799 0.500359712 0.499640288 0.504676259 0.495323741 0.49028777 0.50971223 0.502517986 0.497482014 0.488129496 0.511870504 0.492446043 0.5075539569999999 0.478057554 0.5219424459999999 0.518345324 0.481654676 0.503956835 0.496043165 0.508273381 0.491726619 0.493884892 0.506115108 0.506115108 0.493884892 0.491726619 0.508273381 0.496043165 0.503956835 0.481654676 0.518345324 0.510431655 0.489568345 0.496043165 0.503956835 0.500359712 0.499640288 0.485971223 0.514028777 0.498201439 0.501798561 0.48381295 0.51618705 0.488129496 0.511870504 0.473741007 0.526258993 0.51618705 0.48381295 0.501798561 0.498201439 0.506115108 0.493884892 0.491726619 0.508273381 0.503956835 0.496043165 0.489568345 0.510431655 0.493884892 0.506115108 0.479496403 0.520503597 0.508273381 0.491726619 0.493884892 0.506115108 0.498201439 0.501798561 0.48381295 0.51618705 0.496043165 0.503956835 0.481654676 0.518345324 0.485971223 0.514028777 0.471582734 0.5284172660000001 0.511870504 0.488129496 0.497482014 0.502517986 0.501798561 0.498201439 0.487410072 0.512589928 0.499640288 0.500359712 0.485251799 0.514748201 0.489568345 0.510431655 0.475179856 0.524820144 0.503956835 0.496043165 0.489568345 0.510431655 0.493884892 0.506115108 0.479496403 0.520503597 0.491726619 0.508273381 0.477338129 0.5226618709999999 0.481654676 0.518345324 0.467266187 0.532733813 0.544244604 0.455755396 0.529856115 0.470143885 0.534172662 0.465827338 0.519784173 0.480215827 0.532014388 0.467985612 0.517625899 0.482374101 0.5219424459999999 0.478057554 0.5075539569999999 0.492446043 0.536330935 0.463669065 0.5219424459999999 0.478057554 0.526258993 0.473741007 0.511870504 0.488129496 0.524100719 0.475899281 0.50971223 0.49028777 0.514028777 0.485971223 0.499640288 0.500359712 0.539928058 0.460071942 0.525539568 0.474460432 0.529856115 0.470143885 0.515467626 0.484532374 0.527697842 0.472302158 0.513309353 0.486690647 0.517625899 0.482374101 0.50323741 0.49676259 0.532014388 0.467985612 0.517625899 0.482374101 0.5219424459999999 0.478057554 0.5075539569999999 0.492446043 0.519784173 0.480215827 0.505395683 0.494604317 0.50971223 0.49028777 0.495323741 0.504676259 0.537769784 0.462230216 0.523381295 0.476618705 0.527697842 0.472302158 0.513309353 0.486690647 0.525539568 0.474460432 0.511151079 0.488848921 0.515467626 0.484532374 0.501079137 0.498920863 0.529856115 0.470143885 0.515467626 0.484532374 0.519784173 0.480215827 0.505395683 0.494604317 0.517625899 0.482374101 0.50323741 0.49676259 0.5075539569999999 0.492446043 0.493165468 0.5068345319999999 0.533453237 0.466546763 0.519064748 0.480935252 0.523381295 0.476618705 0.508992806 0.491007194 0.521223022 0.478776978 0.5068345319999999 0.493165468 0.511151079 0.488848921 0.49676259 0.50323741 0.525539568 0.474460432 0.511151079 0.488848921 0.515467626 0.484532374 0.501079137 0.498920863 0.513309353 0.486690647 0.498920863 0.501079137 0.50323741 0.49676259 0.488848921 0.511151079 0.534172662 0.465827338 0.519784173 0.480215827 0.524100719 0.475899281 0.50971223 0.49028777 0.5219424459999999 0.478057554 0.5075539569999999 0.492446043 0.511870504 0.488129496 0.497482014 0.502517986 0.526258993 0.473741007 0.511870504 0.488129496 0.51618705 0.48381295 0.501798561 0.498201439 0.514028777 0.485971223 0.499640288 0.500359712 0.503956835 0.496043165 0.489568345 0.510431655 0.529856115 0.470143885 0.515467626 0.484532374 0.519784173 0.480215827 0.505395683 0.494604317 0.517625899 0.482374101 0.50323741 0.49676259 0.5075539569999999 0.492446043 0.493165468 0.5068345319999999 0.5219424459999999 0.478057554 0.5075539569999999 0.492446043 0.511870504 0.488129496 0.497482014 0.502517986 0.50971223 0.49028777 0.495323741 0.504676259 0.499640288 0.500359712 0.485251799 0.514748201 0.527697842 0.472302158 0.513309353 0.486690647 0.517625899 0.482374101 0.50323741 0.49676259 0.515467626 0.484532374 0.501079137 0.498920863 0.505395683 0.494604317 0.491007194 0.508992806 0.519784173 0.480215827 0.505395683 0.494604317 0.50971223 0.49028777 0.495323741 0.504676259 0.5075539569999999 0.492446043 0.493165468 0.5068345319999999 0.497482014 0.502517986 0.483093525 0.516906475 0.523381295 0.476618705 0.508992806 0.491007194 0.513309353 0.486690647 0.498920863 0.501079137 0.511151079 0.488848921 0.49676259 0.50323741 0.501079137 0.498920863 0.486690647 0.513309353 0.515467626 0.484532374 0.501079137 0.498920863 0.505395683 0.494604317 0.491007194 0.508992806 0.50323741 0.49676259 0.488848921 0.511151079 0.493165468 0.5068345319999999 0.478776978 0.521223022 0.541366906 0.458633094 0.526978417 0.473021583 0.531294964 0.468705036 0.516906475 0.483093525 0.529136691 0.470863309 0.514748201 0.485251799 0.519064748 0.480935252 0.504676259 0.495323741 0.533453237 0.466546763 0.519064748 0.480935252 0.523381295 0.476618705 0.508992806 0.491007194 0.521223022 0.478776978 0.5068345319999999 0.493165468 0.511151079 0.488848921 0.49676259 0.50323741 0.5370503599999999 0.46294964 0.5226618709999999 0.477338129 0.526978417 0.473021583 0.512589928 0.487410072 0.524820144 0.475179856 0.510431655 0.489568345 0.514748201 0.485251799 0.500359712 0.499640288 0.529136691 0.470863309 0.514748201 0.485251799 0.519064748 0.480935252 0.504676259 0.495323741 0.516906475 0.483093525 0.502517986 0.497482014 0.5068345319999999 0.493165468 0.492446043 0.5075539569999999 0.534892086 0.465107914 0.520503597 0.479496403 0.524820144 0.475179856 0.510431655 0.489568345 0.5226618709999999 0.477338129 0.508273381 0.491726619 0.512589928 0.487410072 0.498201439 0.501798561 0.526978417 0.473021583 0.512589928 0.487410072 0.516906475 0.483093525 0.502517986 0.497482014 0.514748201 0.485251799 0.500359712 0.499640288 0.504676259 0.495323741 0.49028777 0.50971223 0.53057554 0.46942446 0.51618705 0.48381295 0.520503597 0.479496403 0.506115108 0.493884892 0.518345324 0.481654676 0.503956835 0.496043165 0.508273381 0.491726619 0.493884892 0.506115108 0.5226618709999999 0.477338129 0.508273381 0.491726619 0.512589928 0.487410072 0.498201439 0.501798561 0.510431655 0.489568345 0.496043165 0.503956835 0.500359712 0.499640288 0.485971223 0.514028777 0.531294964 0.468705036 0.516906475 0.483093525 0.521223022 0.478776978 0.5068345319999999 0.493165468 0.519064748 0.480935252 0.504676259 0.495323741 0.508992806 0.491007194 0.494604317 0.505395683 0.523381295 0.476618705 0.508992806 0.491007194 0.513309353 0.486690647 0.498920863 0.501079137 0.511151079 0.488848921 0.49676259 0.50323741 0.501079137 0.498920863 0.486690647 0.513309353 0.526978417 0.473021583 0.512589928 0.487410072 0.516906475 0.483093525 0.502517986 0.497482014 0.514748201 0.485251799 0.500359712 0.499640288 0.504676259 0.495323741 0.49028777 0.50971223 0.519064748 0.480935252 0.504676259 0.495323741 0.508992806 0.491007194 0.494604317 0.505395683 0.5068345319999999 0.493165468 0.492446043 0.5075539569999999 0.49676259 0.50323741 0.482374101 0.517625899 0.524820144 0.475179856 0.510431655 0.489568345 0.514748201 0.485251799 0.500359712 0.499640288 0.512589928 0.487410072 0.498201439 0.501798561 0.502517986 0.497482014 0.488129496 0.511870504 0.516906475 0.483093525 0.502517986 0.497482014 0.5068345319999999 0.493165468 0.492446043 0.5075539569999999 0.504676259 0.495323741 0.49028777 0.50971223 0.494604317 0.505395683 0.480215827 0.519784173 0.520503597 0.479496403 0.506115108 0.493884892 0.510431655 0.489568345 0.496043165 0.503956835 0.508273381 0.491726619 0.493884892 0.506115108 0.498201439 0.501798561 0.48381295 0.51618705 0.512589928 0.487410072 0.498201439 0.501798561 0.502517986 0.497482014 0.488129496 0.511870504 0.500359712 0.499640288 0.485971223 0.514028777 0.49028777 0.50971223 0.475899281 0.524100719 0.532733813 0.467266187 0.518345324 0.481654676 0.5226618709999999 0.477338129 0.508273381 0.491726619 0.520503597 0.479496403 0.506115108 0.493884892 0.510431655 0.489568345 0.496043165 0.503956835 0.524820144 0.475179856 